<?xml version="1.0"?>
<opencv_storage>
<cascade>
  <stageType>BOOST</stageType>
  <featureType>LBP</featureType>
  <height>32</height>
  <width>32</width>
  <stageParams>
    <boostType>GAB</boostType>
    <minHitRate>9.9500000476837158e-001</minHitRate>
    <maxFalseAlarm>5.0000000000000000e-001</maxFalseAlarm>
    <weightTrimRate>9.4999998807907104e-001</weightTrimRate>
    <maxDepth>1</maxDepth>
    <maxWeakCount>100</maxWeakCount></stageParams>
  <featureParams>
    <maxCatCount>256</maxCatCount>
    <featSize>1</featSize></featureParams>
  <stageNum>18</stageNum>
  <stages>
    <!-- stage 0 -->
    <_>
      <maxWeakCount>5</maxWeakCount>
      <stageThreshold>-1.4232120513916016e+000</stageThreshold>
      <weakClassifiers>
        <_>
          <internalNodes>
            0 -1 80 97810431 903477205 -1718108161 -1076375203
            1015741951 179841531 -538305537 436166891</internalNodes>
          <leafValues>
            -7.4308151006698608e-001 3.9918699860572815e-001</leafValues></_>
        <_>
          <internalNodes>
            0 -1 114 -2113537 424915932 336942559 1038062525 -68436737
            -1142881527 -540047112 5245080</internalNodes>
          <leafValues>
            -7.8120493888854980e-001 3.4216856956481934e-001</leafValues></_>
        <_>
          <internalNodes>
            0 -1 4 -704839938 -1834436674 -2134747468 866227200
            -337775621 8703320 -976748566 6627875</internalNodes>
          <leafValues>
            -6.3211125135421753e-001 3.5586297512054443e-001</leafValues></_>
        <_>
          <internalNodes>
            0 -1 72 -266294384 -168640028 2043683324 -1109851984
            -1761561601 -39809874 797902847 134219776</internalNodes>
          <leafValues>
            -6.3051122426986694e-001 3.7606984376907349e-001</leafValues></_>
        <_>
          <internalNodes>
            0 -1 180 738196957 551088576 -2134670625 30650463 433043711
            167316735 -1697965825 419379935</internalNodes>
          <leafValues>
            -5.7669448852539063e-001 3.7572267651557922e-001</leafValues></_></weakClassifiers></_>
    <!-- stage 1 -->
    <_>
      <maxWeakCount>5</maxWeakCount>
      <stageThreshold>-1.8476729393005371e+000</stageThreshold>
      <weakClassifiers>
        <_>
          <internalNodes>
            0 -1 170 788365311 804747263 -6815745 -1073758209 -1
            -1073741825 -1111752705 -1090535425</internalNodes>
          <leafValues>
            -6.9712883234024048e-001 4.7232824563980103e-001</leafValues></_>
        <_>
          <internalNodes>
            0 -1 128 565460861 -134448129 -16387 -81924 -155651 -132097
            -1073823748 -1109393264</internalNodes>
          <leafValues>
            -5.6868910789489746e-001 4.7603952884674072e-001</leafValues></_>
        <_>
          <internalNodes>
            0 -1 171 -1073791009 -67634177 1609531103 -49153 -1073758721
            -1073774593 -1140965377 804794236</internalNodes>
          <leafValues>
            -7.2743469476699829e-001 3.4666633605957031e-001</leafValues></_>
        <_>
          <internalNodes>
            0 -1 136 611860341 -1111695361 -2228225 -2228289 -1073873923
            -38215685 -65859 -1392763932</internalNodes>
          <leafValues>
            -5.3571379184722900e-001 4.3321087956428528e-001</leafValues></_>
        <_>
          <internalNodes>
            0 -1 160 882649073 -1133502465 -538968585 -319017601
            -16893059 -169020514 -70257707 -1097072492</internalNodes>
          <leafValues>
            -4.8816362023353577e-001 4.9994018673896790e-001</leafValues></_></weakClassifiers></_>
    <!-- stage 2 -->
    <_>
      <maxWeakCount>6</maxWeakCount>
      <stageThreshold>-1.3880162239074707e+000</stageThreshold>
      <weakClassifiers>
        <_>
          <internalNodes>
            0 -1 143 819279871 -25089 -548301313 -43777 -1079002625
            -1074091077 -1110327301 -1074054472</internalNodes>
          <leafValues>
            -6.6989630460739136e-001 4.9298700690269470e-001</leafValues></_>
        <_>
          <internalNodes>
            0 -1 127 917518325 -34308356 -376835 -2279427 -737283
            -327682 -268652611 -1078456952</internalNodes>
          <leafValues>
            -4.8319923877716064e-001 5.3082871437072754e-001</leafValues></_>
        <_>
          <internalNodes>
            0 -1 191 -285216769 -79893529 -1141900321 -1560629522
            -33685507 -353371460 -287715844 -2139033908</internalNodes>
          <leafValues>
            -6.0646754503250122e-001 4.2193490266799927e-001</leafValues></_>
        <_>
          <internalNodes>
            0 -1 103 143929336 -170355265 -34226689 -1076086544
            -1180136967 -33967181 -275104835 -1081602920</internalNodes>
          <leafValues>
            -4.6727436780929565e-001 4.4964173436164856e-001</leafValues></_>
        <_>
          <internalNodes>
            0 -1 197 -1137181227 -2097398020 -1073758217 -1497403399
            -1073771010 -1645216322 -1124102465 -1411420673</internalNodes>
          <leafValues>
            -4.1117131710052490e-001 5.2610534429550171e-001</leafValues></_>
        <_>
          <internalNodes>
            0 -1 27 -931334188 -67608587 -9044609 -1683721 810644980
            -172934924 1930521589 593494050</internalNodes>
          <leafValues>
            -6.0420024394989014e-001 3.6505442857742310e-001</leafValues></_></weakClassifiers></_>
    <!-- stage 3 -->
    <_>
      <maxWeakCount>8</maxWeakCount>
      <stageThreshold>-2.0856173038482666e+000</stageThreshold>
      <weakClassifiers>
        <_>
          <internalNodes>
            0 -1 92 338966517 -2772525 -719618563 -2288161 831011323
            -1078390341 990067643 -1078000737</internalNodes>
          <leafValues>
            -6.7992955446243286e-001 4.0883457660675049e-001</leafValues></_>
        <_>
          <internalNodes>
            0 -1 116 822084016 -707784492 1460707325 -14908132
            -517957383 -72345415 -1165444101 -1693974520</internalNodes>
          <leafValues>
            -5.2929431200027466e-001 4.0183019638061523e-001</leafValues></_>
        <_>
          <internalNodes>
            0 -1 154 411056848 -540004144 671137245 -572762919
            -145165571 -1145569136 705248701 -1430781784</internalNodes>
          <leafValues>
            -5.0122916698455811e-001 3.8117268681526184e-001</leafValues></_>
        <_>
          <internalNodes>
            0 -1 206 -247037302 -532578112 646 1888514060 2034340096
            65538 -1341988222 -234642866</internalNodes>
          <leafValues>
            -4.3029192090034485e-001 4.3084204196929932e-001</leafValues></_>
        <_>
          <internalNodes>
            0 -1 190 -50335874 -37959948 -29857040 -865797516 -922957580
            1727472257 -56034060 -1073419062</internalNodes>
          <leafValues>
            -5.0834405422210693e-001 3.8824090361595154e-001</leafValues></_>
        <_>
          <internalNodes>
            0 -1 71 141078000 -254766830 -1190111819 -1646950954
            291679152 -108982063 1519388862 142606336</internalNodes>
          <leafValues>
            -5.5546373128890991e-001 3.1154119968414307e-001</leafValues></_>
        <_>
          <internalNodes>
            0 -1 181 317772277 -1714016642 788430847 -1645002881
            -1073823747 -1392713761 268218108 -1091598417</internalNodes>
          <leafValues>
            -3.3624035120010376e-001 5.6509989500045776e-001</leafValues></_>
        <_>
          <internalNodes>
            0 -1 118 -1984920068 -704872458 -134398465 1509769185
            -1553664004 -1090717699 -9326628 -1952967240</internalNodes>
          <leafValues>
            -3.5835048556327820e-001 5.0914913415908813e-001</leafValues></_></weakClassifiers></_>
    <!-- stage 4 -->
    <_>
      <maxWeakCount>8</maxWeakCount>
      <stageThreshold>-1.2393358945846558e+000</stageThreshold>
      <weakClassifiers>
        <_>
          <internalNodes>
            0 -1 101 1073692671 -16385 -5259265 -49154 -1073774593 -513
            -50187 -49188</internalNodes>
          <leafValues>
            -6.6924041509628296e-001 3.2827153801918030e-001</leafValues></_>
        <_>
          <internalNodes>
            0 -1 20 -262345 -72024108 -673390721 -9379952 -4926092
            -14353355 -721296 -42671088</internalNodes>
          <leafValues>
            -5.9715503454208374e-001 3.2162383198738098e-001</leafValues></_>
        <_>
          <internalNodes>
            0 -1 182 250920823 216907757 -1090535681 -1562394881
            -536871425 -1392525313 -1344303620 -1392508929</internalNodes>
          <leafValues>
            -5.0366359949111938e-001 3.7347668409347534e-001</leafValues></_>
        <_>
          <internalNodes>
            0 -1 149 788275197 -40013901 -39849985 -65569 -1291919363
            -2098179 -10584579 -1342957816</internalNodes>
          <leafValues>
            -4.3937638401985168e-001 3.9894700050354004e-001</leafValues></_>
        <_>
          <internalNodes>
            0 -1 120 655376253 -1076056194 -147457 -213126 -1342892035
            -554303513 -1074282499 -1074000840</internalNodes>
          <leafValues>
            -3.6684885621070862e-001 4.7434970736503601e-001</leafValues></_>
        <_>
          <internalNodes>
            0 -1 44 -805470863 -1073856515 -134250499 -36867 -268992683
            -1082163209 2146664276 -295055</internalNodes>
          <leafValues>
            -4.1596058011054993e-001 4.4626262784004211e-001</leafValues></_>
        <_>
          <internalNodes>
            0 -1 166 -16777345 -924517787 -18421828 -1934823692
            -302514188 -1379926027 -8915876 -525205785</internalNodes>
          <leafValues>
            -3.7898853421211243e-001 4.7769922018051147e-001</leafValues></_>
        <_>
          <internalNodes>
            0 -1 155 32784245 -536891411 -50381825 -4194371 2075492349
            -1589381 -340787731 -1343209484</internalNodes>
          <leafValues>
            -3.9544022083282471e-001 4.5237553119659424e-001</leafValues></_></weakClassifiers></_>
    <!-- stage 5 -->
    <_>
      <maxWeakCount>9</maxWeakCount>
      <stageThreshold>-1.3876227140426636e+000</stageThreshold>
      <weakClassifiers>
        <_>
          <internalNodes>
            0 -1 54 880639991 -536870945 -10617345 -524801 2146009087
            -68183297 2142190455 -33793</internalNodes>
          <leafValues>
            -6.4642524719238281e-001 2.0181593298912048e-001</leafValues></_>
        <_>
          <internalNodes>
            0 -1 178 -318767105 -390135874 -391455010 -1469255940 -15204
            -590561472 -319427348 -1073414624</internalNodes>
          <leafValues>
            -6.7227262258529663e-001 2.4803754687309265e-001</leafValues></_>
        <_>
          <internalNodes>
            0 -1 112 -136315081 1017200283 -288030726 -1464801282
            -36831752 -587731009 752791480 537192363</internalNodes>
          <leafValues>
            -4.9027663469314575e-001 3.1722363829612732e-001</leafValues></_>
        <_>
          <internalNodes>
            0 -1 117 -86115012 297604397 -33161825 -34231177 -2098177
            -1124402181 -1092637509 817314867</internalNodes>
          <leafValues>
            -3.9247187972068787e-001 3.8574418425559998e-001</leafValues></_>
        <_>
          <internalNodes>
            0 -1 109 649072440 -11002923 524619103 -111395140 -742376515
            -1135048521 -10801287 146801672</internalNodes>
          <leafValues>
            -5.8106285333633423e-001 2.4491575360298157e-001</leafValues></_>
        <_>
          <internalNodes>
            0 -1 11 -293930189 -272075344 -582037755 -44895772
            -1952648480 -1057895711 -77532304 -38277871</internalNodes>
          <leafValues>
            -3.7713190913200378e-001 4.0276965498924255e-001</leafValues></_>
        <_>
          <internalNodes>
            0 -1 47 2000977872 -839451401 2093784560 -537313793
            2076406779 1073719793 1875999933 350688727</internalNodes>
          <leafValues>
            -5.1371079683303833e-001 2.5288194417953491e-001</leafValues></_>
        <_>
          <internalNodes>
            0 -1 188 -61348301 -32178250 1856034458 -1334772432
            -858237948 -977478564 -558579824 -524628541</internalNodes>
          <leafValues>
            -3.4895625710487366e-001 3.8905218243598938e-001</leafValues></_>
        <_>
          <internalNodes>
            0 -1 137 507264372 -1075719170 -1156074529 2079104735
            -327062019 -104863333 -1151779139 761792552</internalNodes>
          <leafValues>
            -5.6756764650344849e-001 2.6389807462692261e-001</leafValues></_></weakClassifiers></_>
    <!-- stage 6 -->
    <_>
      <maxWeakCount>9</maxWeakCount>
      <stageThreshold>-1.6452012062072754e+000</stageThreshold>
      <weakClassifiers>
        <_>
          <internalNodes>
            0 -1 210 -285741137 -1073290930 -1028468088 1216537126
            -187707475 -934874321 -925631536 -524812297</internalNodes>
          <leafValues>
            -6.2999469041824341e-001 2.7597555518150330e-001</leafValues></_>
        <_>
          <internalNodes>
            0 -1 53 2147450743 -137 -175954510 -360461 2130147703
            2138536823 1943746355 -819337</internalNodes>
          <leafValues>
            -4.8365679383277893e-001 3.6059090495109558e-001</leafValues></_>
        <_>
          <internalNodes>
            0 -1 0 -406066702 -72208478 -708213213 -347010560 1708735669
            687288422 1717700144 2004305459</internalNodes>
          <leafValues>
            -4.8607093095779419e-001 3.6720731854438782e-001</leafValues></_>
        <_>
          <internalNodes>
            0 -1 214 786168703 148023989 -1361334677 246711017
            -1208615425 251651319 -807419985 -285212673</internalNodes>
          <leafValues>
            -4.0873855352401733e-001 3.8060989975929260e-001</leafValues></_>
        <_>
          <internalNodes>
            0 -1 17 -141295789 -72814666 -5062863 -579670032 -437199920
            -51314703 -671984364 -805845529</internalNodes>
          <leafValues>
            -2.3784677684307098e-001 6.0696780681610107e-001</leafValues></_>
        <_>
          <internalNodes>
            0 -1 189 -8919390 1078000838 -2036203478 16698058 2000896000
            876771584 310833152 -252184733</internalNodes>
          <leafValues>
            -4.7161090373992920e-001 3.1328240036964417e-001</leafValues></_>
        <_>
          <internalNodes>
            0 -1 34 -303503361 -1233863057 1878949883 -138936538
            1156052847 849761279 1727346615 1171776679</internalNodes>
          <leafValues>
            -3.1577625870704651e-001 4.1173380613327026e-001</leafValues></_>
        <_>
          <internalNodes>
            0 -1 175 -24122348 -787184058 -1570527216 1750226628
            -329528924 805746821 153340416 -1067200201</internalNodes>
          <leafValues>
            -3.9160728454589844e-001 3.3607473969459534e-001</leafValues></_>
        <_>
          <internalNodes>
            0 -1 89 2127701620 -109281834 366024405 1039613558 837104374
            -1986864758 1004745903 82912594</internalNodes>
          <leafValues>
            -5.9981340169906616e-001 2.0760440826416016e-001</leafValues></_></weakClassifiers></_>
    <!-- stage 7 -->
    <_>
      <maxWeakCount>11</maxWeakCount>
      <stageThreshold>-1.2726670503616333e+000</stageThreshold>
      <weakClassifiers>
        <_>
          <internalNodes>
            0 -1 52 -36208641 -297473 -201908737 -4509190 2109439999
            2012315259 -88654853 -1025</internalNodes>
          <leafValues>
            -5.7140451669692993e-001 2.1739129722118378e-001</leafValues></_>
        <_>
          <internalNodes>
            0 -1 115 -2622280 301334012 -77621251 -237242441 -279970305
            -234899983 -5293379 270777907</internalNodes>
          <leafValues>
            -4.5681720972061157e-001 2.6941859722137451e-001</leafValues></_>
        <_>
          <internalNodes>
            0 -1 159 676724725 746431998 -1092887041 803069439
            -1147163395 -1124365933 -1996503812 218103438</internalNodes>
          <leafValues>
            -4.6572056412696838e-001 2.5490081310272217e-001</leafValues></_>
        <_>
          <internalNodes>
            0 -1 2 -286457862 -143066124 534756859 -136535264 1326481405
            -337608779 -1779584009 1676899409</internalNodes>
          <leafValues>
            -3.9272257685661316e-001 2.9629141092300415e-001</leafValues></_>
        <_>
          <internalNodes>
            0 -1 146 84950909 -36421635 -33832963 -1245187 -2232321
            -1347436545 -1074004483 -1074254548</internalNodes>
          <leafValues>
            -3.3018639683723450e-001 3.4822973608970642e-001</leafValues></_>
        <_>
          <internalNodes>
            0 -1 209 -286005249 -90112969 -33554757 -1057565000
            -42213410 -857407801 -587209552 -1062472449</internalNodes>
          <leafValues>
            -2.6056364178657532e-001 4.6592882275581360e-001</leafValues></_>
        <_>
          <internalNodes>
            0 -1 78 237928422 -59607586 -111912554 -3132968 1997224895
            -1075332503 -471961871 -1179173834</internalNodes>
          <leafValues>
            -3.8059940934181213e-001 2.9794898629188538e-001</leafValues></_>
        <_>
          <internalNodes>
            0 -1 16 -957415682 -61088801 -913786540 -1076570128
            1141949095 -559902201 1975908343 -672022025</internalNodes>
          <leafValues>
            -3.2912507653236389e-001 3.3238056302070618e-001</leafValues></_>
        <_>
          <internalNodes>
            0 -1 157 851197431 -1126395445 -1089102177 1022083039
            252329342 -1309150811 1020213981 -1403745412</internalNodes>
          <leafValues>
            -4.2976054549217224e-001 2.5116044282913208e-001</leafValues></_>
        <_>
          <internalNodes>
            0 -1 174 -553652684 -42429628 -533413104 1448133648
            -1059787900 -500264832 -1811619464 -931084554</internalNodes>
          <leafValues>
            -5.5837959051132202e-001 1.9212645292282104e-001</leafValues></_>
        <_>
          <internalNodes>
            0 -1 48 1793294280 -420728618 -44081734 -1074389832
            132604785 1466126979 -403213483 2012702293</internalNodes>
          <leafValues>
            -5.5788248777389526e-001 1.9707724452018738e-001</leafValues></_></weakClassifiers></_>
    <!-- stage 8 -->
    <_>
      <maxWeakCount>13</maxWeakCount>
      <stageThreshold>-1.3762518167495728e+000</stageThreshold>
      <weakClassifiers>
        <_>
          <internalNodes>
            0 -1 37 -268436481 -67109985 -211873289 -170934897
            1842313073 -553653929 -276334240 -1015548335</internalNodes>
          <leafValues>
            -5.8781868219375610e-001 1.5185184776782990e-001</leafValues></_>
        <_>
          <internalNodes>
            0 -1 180 -1074004619 903213245 -1374771457 633076287
            1035706365 350145413 -1074720787 503316399</internalNodes>
          <leafValues>
            -4.6560668945312500e-001 2.6455789804458618e-001</leafValues></_>
        <_>
          <internalNodes>
            0 -1 221 -419694609 615694254 -404750425 -1402049310
            -545280163 1280827381 -522717716 -319816653</internalNodes>
          <leafValues>
            -2.5743591785430908e-001 4.4343224167823792e-001</leafValues></_>
        <_>
          <internalNodes>
            0 -1 40 1463340944 -172493837 1062182897 -1653753161
            -1066364429 -560625694 -296140805 1165165314</internalNodes>
          <leafValues>
            -4.0479588508605957e-001 2.7042004466056824e-001</leafValues></_>
        <_>
          <internalNodes>
            0 -1 15 -2687708 -345844944 -992423660 -63635856 1644218064
            -121584990 2085679152 -915094475</internalNodes>
          <leafValues>
            -5.6800323724746704e-001 2.1895916759967804e-001</leafValues></_>
        <_>
          <internalNodes>
            0 -1 111 -119679492 -88545103 1556531111 -1796872345
            -67110405 -257204042 -1127041400 548267242</internalNodes>
          <leafValues>
            -4.0341380238533020e-001 2.7787396311759949e-001</leafValues></_>
        <_>
          <internalNodes>
            0 -1 226 -1280051201 152561915 -1105281409 -1730242693
            -1073752065 -1095368739 -2014386465 -1963264065</internalNodes>
          <leafValues>
            -2.9243946075439453e-001 3.8202530145645142e-001</leafValues></_>
        <_>
          <internalNodes>
            0 -1 31 -1532303364 -123414057 425676287 -1074073188
            1182085621 -805943117 -78857473 1802503792</internalNodes>
          <leafValues>
            -4.0917459130287170e-001 2.7686944603919983e-001</leafValues></_>
        <_>
          <internalNodes>
            0 -1 139 -1384395344 1014781269 -1102061868 -1195452193
            534764029 -1107560518 -336642104 3484688</internalNodes>
          <leafValues>
            -5.6310224533081055e-001 1.9168464839458466e-001</leafValues></_>
        <_>
          <internalNodes>
            0 -1 217 -356003226 -1393384533 -323371006 -756369764
            584843588 908259943 -175671216 -487932058</internalNodes>
          <leafValues>
            -3.7942728400230408e-001 2.7239888906478882e-001</leafValues></_>
        <_>
          <internalNodes>
            0 -1 69 -355474904 -2069385333 -453205024 -1296122154
            662164796 1090452892 -134795904 -185075785</internalNodes>
          <leafValues>
            -3.1311774253845215e-001 3.3524289727210999e-001</leafValues></_>
        <_>
          <internalNodes>
            0 -1 75 -87787536 -70240777 627511196 1002379954 -30643467
            2105692332 1061299199 -289470725</internalNodes>
          <leafValues>
            -3.5102167725563049e-001 2.8767725825309753e-001</leafValues></_>
        <_>
          <internalNodes>
            0 -1 173 -933770236 -544119948 -1772423654 -15278526
            -2129620972 -1184851448 -671023814 540077750</internalNodes>
          <leafValues>
            -4.7529661655426025e-001 2.1728965640068054e-001</leafValues></_></weakClassifiers></_>
    <!-- stage 9 -->
    <_>
      <maxWeakCount>14</maxWeakCount>
      <stageThreshold>-1.3673275709152222e+000</stageThreshold>
      <weakClassifiers>
        <_>
          <internalNodes>
            0 -1 67 1064599541 -1649762 1572552634 -2408526 -954369
            -14193937 -68337665 -37893</internalNodes>
          <leafValues>
            -6.1494719982147217e-001 1.2482662685215473e-002</leafValues></_>
        <_>
          <internalNodes>
            0 -1 30 -139530246 -204482129 -639961089 -4495361 61481385
            1858496751 2136438781 1105642639</internalNodes>
          <leafValues>
            -3.6463680863380432e-001 2.8292196989059448e-001</leafValues></_>
        <_>
          <internalNodes>
            0 -1 129 678693692 -67369095 -1077965859 -1120157793
            1005715453 -1144805189 -1363404033 -1158673368</internalNodes>
          <leafValues>
            -3.7328386306762695e-001 2.7576115727424622e-001</leafValues></_>
        <_>
          <internalNodes>
            0 -1 5 -285742189 2140809442 -52200656 -69008176 208016795
            -543558369 1283278065 2046248359</internalNodes>
          <leafValues>
            -2.9904407262802124e-001 3.3417746424674988e-001</leafValues></_>
        <_>
          <internalNodes>
            0 -1 225 -2015429123 683418092 -1496893802 -1367822602
            737828863 716807043 -1685191681 -1175786253</internalNodes>
          <leafValues>
            -3.2282614707946777e-001 3.0899149179458618e-001</leafValues></_>
        <_>
          <internalNodes>
            0 -1 205 -87950774 -230469713 -554238238 1929051967
            -1115722170 1675095887 -453313279 -218897234</internalNodes>
          <leafValues>
            -2.6113212108612061e-001 3.6786904931068420e-001</leafValues></_>
        <_>
          <internalNodes>
            0 -1 134 745059185 1926899167 -174188097 -1753338371
            -593749267 931959021 -1097027604 803999148</internalNodes>
          <leafValues>
            -4.1232049465179443e-001 2.3882353305816650e-001</leafValues></_>
        <_>
          <internalNodes>
            0 -1 3 -268524776 -100914689 -93039300 -1108079158
            1625830904 1888611301 -88494658 4534164</internalNodes>
          <leafValues>
            -4.2395833134651184e-001 2.1785306930541992e-001</leafValues></_>
        <_>
          <internalNodes>
            0 -1 193 -419437585 -1874410804 -340554171 -401821569
            -233453644 -1065827067 -846359476 -536613154</internalNodes>
          <leafValues>
            -3.0843576788902283e-001 3.0567529797554016e-001</leafValues></_>
        <_>
          <internalNodes>
            0 -1 140 363099348 -1629627047 222771455 -1445169283
            1002290095 1069391519 263142876 1005977781</internalNodes>
          <leafValues>
            -5.4981917142868042e-001 1.7078660428524017e-001</leafValues></_>
        <_>
          <internalNodes>
            0 -1 86 -857723100 -18835647 1498804827 -1076043343
            -1432262947 -1078631271 1354416060 -1141893840</internalNodes>
          <leafValues>
            -3.6165454983711243e-001 2.6993620395660400e-001</leafValues></_>
        <_>
          <internalNodes>
            0 -1 24 -171511925 -1113284751 -285770884 -509558954
            1022427125 -26159243 -6017277 -143437193</internalNodes>
          <leafValues>
            -2.7056255936622620e-001 3.4800332784652710e-001</leafValues></_>
        <_>
          <internalNodes>
            0 -1 163 -546308899 1964742655 2146216746 1915694122
            -16873782 1231945694 -118037814 -1605384273</internalNodes>
          <leafValues>
            -2.4426861107349396e-001 3.8421282172203064e-001</leafValues></_>
        <_>
          <internalNodes>
            0 -1 148 762852948 -182946415 -304390187 -732420499
            -1180370185 -1074142765 -1551065160 -1679159592</internalNodes>
          <leafValues>
            -3.6262729763984680e-001 2.7347466349601746e-001</leafValues></_></weakClassifiers></_>
    <!-- stage 10 -->
    <_>
      <maxWeakCount>16</maxWeakCount>
      <stageThreshold>-1.5277692079544067e+000</stageThreshold>
      <weakClassifiers>
        <_>
          <internalNodes>
            0 -1 33 -268435457 -71312225 -122160773 -134218799
            -442271483 -356261641 -623154384 -8917385</internalNodes>
          <leafValues>
            -5.4123628139495850e-001 1.8080748617649078e-001</leafValues></_>
        <_>
          <internalNodes>
            0 -1 197 -1895825409 -1430348290 -1164342025 804610029
            -1346389505 32141754 -1399345665 -1461735425</internalNodes>
          <leafValues>
            -3.9483878016471863e-001 2.3540787398815155e-001</leafValues></_>
        <_>
          <internalNodes>
            0 -1 132 -1129833987 -163841 -84000769 -1075970435 -33574913
            -1145225347 -83521 -1900276244</internalNodes>
          <leafValues>
            -2.5176918506622314e-001 3.7183633446693420e-001</leafValues></_>
        <_>
          <internalNodes>
            0 -1 49 1844205559 -26543114 -1620765704 -1111576654
            1801093114 1399944102 -14601227 -11042846</internalNodes>
          <leafValues>
            -3.2844644784927368e-001 2.7147746086120605e-001</leafValues></_>
        <_>
          <internalNodes>
            0 -1 187 -152837042 283692102 -1001470842 543477478
            1984316932 1112891988 -524889088 1884815187</internalNodes>
          <leafValues>
            -4.2188519239425659e-001 2.4424330890178680e-001</leafValues></_>
        <_>
          <internalNodes>
            0 -1 121 28323444 1297908121 -1883324419 -1646390954
            -1092592643 -1108303481 1538075544 706741024</internalNodes>
          <leafValues>
            -6.0074043273925781e-001 1.3770392537117004e-001</leafValues></_>
        <_>
          <internalNodes>
            0 -1 6 -622407770 -1243844610 -2779709 502280992 -2059325996
            2122177970 -277652507 29700982</internalNodes>
          <leafValues>
            -4.6103748679161072e-001 1.7765912413597107e-001</leafValues></_>
        <_>
          <internalNodes>
            0 -1 168 -142607012 1566954805 -1358954754 -570427141
            -549707 234880511 520093418 482082482</internalNodes>
          <leafValues>
            -2.9511067271232605e-001 3.2107761502265930e-001</leafValues></_>
        <_>
          <internalNodes>
            0 -1 194 -427823361 -198722331 -319226635 -2005553461
            -1351096611 -194117649 -16938895 -1065361161</internalNodes>
          <leafValues>
            -2.6521772146224976e-001 3.3571976423263550e-001</leafValues></_>
        <_>
          <internalNodes>
            0 -1 142 39359988 -10990083 -1249667107 2102275517
            2140274685 -1644711301 -1108461635 -1112003400</internalNodes>
          <leafValues>
            -3.6887976527214050e-001 2.4234022200107574e-001</leafValues></_>
        <_>
          <internalNodes>
            0 -1 13 -537723109 -42535062 -1745485962 -268566748
            -1342909264 -67849 2129982768 -804010729</internalNodes>
          <leafValues>
            -2.7186232805252075e-001 3.2060346007347107e-001</leafValues></_>
        <_>
          <internalNodes>
            0 -1 203 -23599437 -73339522 1991797734 1897200800
            -458302168 -1112482183 -1259545144 -304361814</internalNodes>
          <leafValues>
            -2.1097308397293091e-001 4.1194114089012146e-001</leafValues></_>
        <_>
          <internalNodes>
            0 -1 152 637808180 -1260612721 -589065699 -1344782855
            479187445 -1310827629 -1215755304 -1749807268</internalNodes>
          <leafValues>
            -4.7386252880096436e-001 1.9112171232700348e-001</leafValues></_>
        <_>
          <internalNodes>
            0 -1 50 2034595711 2006603981 -1185851947 2145270097
            1661604677 63914599 469449569 1985706301</internalNodes>
          <leafValues>
            -4.1848328709602356e-001 2.1232290565967560e-001</leafValues></_>
        <_>
          <internalNodes>
            0 -1 32 -235213570 -34095105 -1610613038 -151633929
            610394008 -134800065 -550519298 1263748395</internalNodes>
          <leafValues>
            -2.8585237264633179e-001 3.1809598207473755e-001</leafValues></_>
        <_>
          <internalNodes>
            0 -1 119 -423841996 -1714139205 721739327 -1744938724
            1490247069 -1413615467 -1899029236 -1392755220</internalNodes>
          <leafValues>
            -3.5206264257431030e-001 2.4285683035850525e-001</leafValues></_></weakClassifiers></_>
    <!-- stage 11 -->
    <_>
      <maxWeakCount>16</maxWeakCount>
      <stageThreshold>-1.3534133434295654e+000</stageThreshold>
      <weakClassifiers>
        <_>
          <internalNodes>
            0 -1 26 -67108865 -677390145 -983580417 -537600519
            -213125017 -1711561919 2143803121 -998783753</internalNodes>
          <leafValues>
            -5.2860486507415771e-001 9.1803275048732758e-002</leafValues></_>
        <_>
          <internalNodes>
            0 -1 65 888700916 1599887735 -587007248 -1082205242
            1857649055 -1159435873 1607407125 2045935120</internalNodes>
          <leafValues>
            -4.8439738154411316e-001 1.5107254683971405e-001</leafValues></_>
        <_>
          <internalNodes>
            0 -1 222 -270012473 -335348041 -273944800 -1398627152
            526900543 -1941635075 -855790151 -453513225</internalNodes>
          <leafValues>
            -2.3924095928668976e-001 3.6493009328842163e-001</leafValues></_>
        <_>
          <internalNodes>
            0 -1 87 674803620 -19363850 -14963233 -1344794790 240649215
            -1075482255 -343265285 184812712</internalNodes>
          <leafValues>
            -4.2676496505737305e-001 2.0052379369735718e-001</leafValues></_>
        <_>
          <internalNodes>
            0 -1 9 -672208981 -843682290 -1662571712 -71454942
            1445283813 1474756551 1962353440 -201856265</internalNodes>
          <leafValues>
            -2.6671996712684631e-001 3.2118618488311768e-001</leafValues></_>
        <_>
          <internalNodes>
            0 -1 185 -1224736769 -1376077329 -1275117925 -2080375953
            -67108882 -1879114370 -1409311266 -269489797</internalNodes>
          <leafValues>
            -2.5913751125335693e-001 3.1463593244552612e-001</leafValues></_>
        <_>
          <internalNodes>
            0 -1 105 -1551323208 1072224764 -1114161972 -1310938704
            580169693 1987137256 1198143676 698094016</internalNodes>
          <leafValues>
            -4.0982890129089355e-001 2.1253471076488495e-001</leafValues></_>
        <_>
          <internalNodes>
            0 -1 100 -270008660 273467935 -871371051 -71322849
            -742966346 -254422537 797944189 141563686</internalNodes>
          <leafValues>
            -4.1687360405921936e-001 1.8751624226570129e-001</leafValues></_>
        <_>
          <internalNodes>
            0 -1 176 -632819408 1897149222 -1184889856 -1714357698
            1481957976 -1005260127 -1098739410 -2140945869</internalNodes>
          <leafValues>
            -3.4118807315826416e-001 2.4257612228393555e-001</leafValues></_>
        <_>
          <internalNodes>
            0 -1 82 -305271936 -1844064368 -327886497 -2114382973
            -40928787 -679094792 -839849016 873561887</internalNodes>
          <leafValues>
            -3.5215330123901367e-001 2.3747931420803070e-001</leafValues></_>
        <_>
          <internalNodes>
            0 -1 126 782511932 700227485 -732469761 -1519480451
            -1531872267 -134233607 -203767811 -1388570368</internalNodes>
          <leafValues>
            -4.1409009695053101e-001 2.0110027492046356e-001</leafValues></_>
        <_>
          <internalNodes>
            0 -1 8 -1016076378 158263082 -57549616 -162377950 511705014
            625435382 1928486032 -153879049</internalNodes>
          <leafValues>
            -3.2631155848503113e-001 2.4991363286972046e-001</leafValues></_>
        <_>
          <internalNodes>
            0 -1 123 269777781 249496060 -2121548329 -1696725811
            465318869 1051406332 777204197 720646660</internalNodes>
          <leafValues>
            -5.3965741395950317e-001 1.5073020756244659e-001</leafValues></_>
        <_>
          <internalNodes>
            0 -1 29 -420817218 -1345374253 -656906182 -134489961
            43197354 2147441159 2097637368 1084539271</internalNodes>
          <leafValues>
            -3.2808920741081238e-001 2.6001149415969849e-001</leafValues></_>
        <_>
          <internalNodes>
            0 -1 165 1018707317 -254009162 -720946706 -1092698628
            -1561227299 2144499899 -153212456 -1360515476</internalNodes>
          <leafValues>
            -3.7851947546005249e-001 2.1734386682510376e-001</leafValues></_>
        <_>
          <internalNodes>
            0 -1 161 -1646971868 832104478 -1417473956 2093443483
            -639774504 429926904 782023164 134227984</internalNodes>
          <leafValues>
            -5.0689238309860229e-001 1.7470152676105499e-001</leafValues></_></weakClassifiers></_>
    <!-- stage 12 -->
    <_>
      <maxWeakCount>16</maxWeakCount>
      <stageThreshold>-1.3964090347290039e+000</stageThreshold>
      <weakClassifiers>
        <_>
          <internalNodes>
            0 -1 73 -288423938 -1749995169 -447521825 -537191121
            -370082833 2140239255 -805834753 -957364241</internalNodes>
          <leafValues>
            -5.3395426273345947e-001 8.4603257477283478e-002</leafValues></_>
        <_>
          <internalNodes>
            0 -1 63 -383090720 865207730 -1352722500 -1074579950
            1671584687 2143756479 2055158909 1878751231</internalNodes>
          <leafValues>
            -4.3743771314620972e-001 1.6943466663360596e-001</leafValues></_>
        <_>
          <internalNodes>
            0 -1 206 -201851698 -161499153 1650375342 -520483090
            960450304 1443064391 -227083744 -260572585</internalNodes>
          <leafValues>
            -3.1027808785438538e-001 2.7663239836692810e-001</leafValues></_>
        <_>
          <internalNodes>
            0 -1 56 -873793558 -1748915550 -1613552653 -138599904
            -697264391 1055173592 -1175509253 1207386915</internalNodes>
          <leafValues>
            -3.1730815768241882e-001 2.5755703449249268e-001</leafValues></_>
        <_>
          <internalNodes>
            0 -1 196 -1388315403 291265882 540084890 16578291 702485919
            476838809 127274237 8382006</internalNodes>
          <leafValues>
            -4.0979990363121033e-001 2.1560160815715790e-001</leafValues></_>
        <_>
          <internalNodes>
            0 -1 19 -320667722 -694528577 1879168819 -472328844
            1409587266 -2104356896 -201986286 -1006254410</internalNodes>
          <leafValues>
            -3.5113090276718140e-001 2.4127599596977234e-001</leafValues></_>
        <_>
          <internalNodes>
            0 -1 104 -466869452 -740021827 -272556193 -4938828 671001597
            -210741029 -1032738307 790626440</internalNodes>
          <leafValues>
            -4.3125256896018982e-001 1.7137348651885986e-001</leafValues></_>
        <_>
          <internalNodes>
            0 -1 113 1986393616 272374967 1562754983 682603359
            -1107296865 -1137067371 -105556344 10288811</internalNodes>
          <leafValues>
            -3.8799861073493958e-001 2.1561522781848907e-001</leafValues></_>
        <_>
          <internalNodes>
            0 -1 95 1581416309 -8138545 -192856488 -340771618 2023389951
            -1107490577 2040465876 1878407479</internalNodes>
          <leafValues>
            -3.6344838142395020e-001 2.1459685266017914e-001</leafValues></_>
        <_>
          <internalNodes>
            0 -1 102 103843612 -604490605 122491895 -1621485764
            -499012679 -888151 -257126915 -1428943704</internalNodes>
          <leafValues>
            -3.6087390780448914e-001 2.2269915044307709e-001</leafValues></_>
        <_>
          <internalNodes>
            0 -1 41 -949332012 970850764 -116837479 905916984 1875015664
            2009291415 1726443569 1617314933</internalNodes>
          <leafValues>
            -4.7412627935409546e-001 1.6966740787029266e-001</leafValues></_>
        <_>
          <internalNodes>
            0 -1 220 -322966963 715927727 -1971095948 719741434
            -941986843 878825634 -1040727836 -459547457</internalNodes>
          <leafValues>
            -2.9472559690475464e-001 2.6071649789810181e-001</leafValues></_>
        <_>
          <internalNodes>
            0 -1 23 -1041309828 -1705358345 -220954294 1878524698
            1913952052 21143701 -1839842929 520553815</internalNodes>
          <leafValues>
            -3.5490131378173828e-001 2.1681709587574005e-001</leafValues></_>
        <_>
          <internalNodes>
            0 -1 181 -1158415235 -1145585997 -1073824778 -1107919234
            -49169 -1644364257 1845343996 -94916</internalNodes>
          <leafValues>
            -2.3377123475074768e-001 3.4993156790733337e-001</leafValues></_>
        <_>
          <internalNodes>
            0 -1 186 -854602508 -50312696 1275111708 -649560032
            -1060511588 1490436096 -1463749732 -398407948</internalNodes>
          <leafValues>
            -5.3440082073211670e-001 1.4029626548290253e-001</leafValues></_>
        <_>
          <internalNodes>
            0 -1 141 794303349 -359154625 -744810817 -1898689186
            -1597882960 974718449 2074548181 -1074786316</internalNodes>
          <leafValues>
            -3.9303302764892578e-001 2.0550532639026642e-001</leafValues></_></weakClassifiers></_>
    <!-- stage 13 -->
    <_>
      <maxWeakCount>17</maxWeakCount>
      <stageThreshold>-1.4751324653625488e+000</stageThreshold>
      <weakClassifiers>
        <_>
          <internalNodes>
            0 -1 74 -278201346 -1147511842 -611893253 1071329176
            -1443890689 1532573695 -471992577 -269488209</internalNodes>
          <leafValues>
            -5.2824711799621582e-001 5.2847612649202347e-002</leafValues></_>
        <_>
          <internalNodes>
            0 -1 156 1073740885 891670597 -1396179717 -1932134449
            -1311900418 478935499 139528687 165508343</internalNodes>
          <leafValues>
            -4.6755009889602661e-001 1.3663809001445770e-001</leafValues></_>
        <_>
          <internalNodes>
            0 -1 59 -588841037 -12732982 -208685662 663947171 1123104726
            754199487 1994521575 1375032899</internalNodes>
          <leafValues>
            -3.3680948615074158e-001 2.2432658076286316e-001</leafValues></_>
        <_>
          <internalNodes>
            0 -1 98 -705167964 1073783456 -673791350 69063115 -615067760
            -293540050 1856498476 672902414</internalNodes>
          <leafValues>
            -3.4791103005409241e-001 2.2764448821544647e-001</leafValues></_>
        <_>
          <internalNodes>
            0 -1 124 24128828 -25427617 1250233819 1065103871 548494269
            -4410467 1760276152 715917480</internalNodes>
          <leafValues>
            -4.9690690636634827e-001 1.4825610816478729e-001</leafValues></_>
        <_>
          <internalNodes>
            0 -1 211 -290468407 1621813619 -903954084 -1608197628
            -896611378 73805385 -1058015796 -1069287933</internalNodes>
          <leafValues>
            -3.1495174765586853e-001 2.5940623879432678e-001</leafValues></_>
        <_>
          <internalNodes>
            0 -1 83 -302518365 -913379569 2011725106 -691175576
            -486539549 227409397 -134354958 -285215093</internalNodes>
          <leafValues>
            -1.8832378089427948e-001 4.2865568399429321e-001</leafValues></_>
        <_>
          <internalNodes>
            0 -1 51 -536972809 2080259070 -114817 -1078706242 -109101445
            2000633655 -245896 -142639113</internalNodes>
          <leafValues>
            -2.5852310657501221e-001 2.9823762178421021e-001</leafValues></_>
        <_>
          <internalNodes>
            0 -1 162 -545501844 -679579785 -1073861025 -1745408354
            -554373635 -42975876 -17003318 -1375162690</internalNodes>
          <leafValues>
            -2.4008415639400482e-001 3.1853583455085754e-001</leafValues></_>
        <_>
          <internalNodes>
            0 -1 122 618016628 -624514285 -1720190084 2087882836
            -1218186307 -1124559900 -1209951079 134219312</internalNodes>
          <leafValues>
            -4.8030593991279602e-001 1.4748521149158478e-001</leafValues></_>
        <_>
          <internalNodes>
            0 -1 36 -192352462 -140839626 1788445141 -1074849283
            814747348 -1149823132 1650352477 1509898</internalNodes>
          <leafValues>
            -3.8298821449279785e-001 2.0050607621669769e-001</leafValues></_>
        <_>
          <internalNodes>
            0 -1 200 -352421276 905313174 -524373382 2061433805
            -1912076476 755654933 -221860844 -225378518</internalNodes>
          <leafValues>
            -3.1510645151138306e-001 2.3143544793128967e-001</leafValues></_>
        <_>
          <internalNodes>
            0 -1 213 -1404109580 434033950 -1525972260 30193244
            376575083 31447306 738200798 1962342647</internalNodes>
          <leafValues>
            -4.0956115722656250e-001 1.7677593231201172e-001</leafValues></_>
        <_>
          <internalNodes>
            0 -1 135 1289791445 -247679659 -833365013 -1116063304
            -1086983503 -337772102 -336086119 800864352</internalNodes>
          <leafValues>
            -3.2278043031692505e-001 2.4156914651393890e-001</leafValues></_>
        <_>
          <internalNodes>
            0 -1 25 -822426315 -1311479476 -133971081 -1483701936
            -755971659 -880743168 -11012890 -1221070761</internalNodes>
          <leafValues>
            -2.7651453018188477e-001 2.7823084592819214e-001</leafValues></_>
        <_>
          <internalNodes>
            0 -1 81 -2023721212 1947101092 -770020441 -1715702864
            1441436018 -1131296933 1842030289 343344193</internalNodes>
          <leafValues>
            -4.4026440382003784e-001 1.7671397328376770e-001</leafValues></_>
        <_>
          <internalNodes>
            0 -1 177 83248725 -2041000649 -283510871 -1361275619
            -1883247675 1740108795 -1592138816 -1191669896</internalNodes>
          <leafValues>
            -3.8679769635200500e-001 1.8202687799930573e-001</leafValues></_></weakClassifiers></_>
    <!-- stage 14 -->
    <_>
      <maxWeakCount>20</maxWeakCount>
      <stageThreshold>-1.6400122642517090e+000</stageThreshold>
      <weakClassifiers>
        <_>
          <internalNodes>
            0 -1 38 -510726162 -1086904962 -886631011 -1120204834
            33652671 1997814763 1464072941 1163380143</internalNodes>
          <leafValues>
            -6.3056045770645142e-001 -1.4589422941207886e-001</leafValues></_>
        <_>
          <internalNodes>
            0 -1 218 -130028854 -1767153303 -267869606 1615915566
            1980712768 1828996677 -152244560 -193735661</internalNodes>
          <leafValues>
            -3.4423586726188660e-001 2.0171223580837250e-001</leafValues></_>
        <_>
          <internalNodes>
            0 -1 1 -856427537 -571891270 1878934903 -706661648
            -1510093314 -537923657 -453852741 1601389047</internalNodes>
          <leafValues>
            -2.3615516722202301e-001 3.1259942054748535e-001</leafValues></_>
        <_>
          <internalNodes>
            0 -1 131 -556008972 -36447985 1175186679 2100542895
            -1146900833 -1380279853 -1411965733 418869490</internalNodes>
          <leafValues>
            -2.8457501530647278e-001 2.5863590836524963e-001</leafValues></_>
        <_>
          <internalNodes>
            0 -1 62 924988794 1057700302 -617147493 -541126146 117784507
            1065245135 1904180093 1401874346</internalNodes>
          <leafValues>
            -3.1161415576934814e-001 2.3523712158203125e-001</leafValues></_>
        <_>
          <internalNodes>
            0 -1 226 736281083 724337050 -1558736649 307266239 998955263
            -1761942649 132824814 -1932725090</internalNodes>
          <leafValues>
            -3.4877204895019531e-001 2.1368215978145599e-001</leafValues></_>
        <_>
          <internalNodes>
            0 -1 97 -44958884 -278071412 1493860628 612668428 -888949976
            -1374909798 -1840659700 217948392</internalNodes>
          <leafValues>
            -4.7420316934585571e-001 1.4758773148059845e-001</leafValues></_>
        <_>
          <internalNodes>
            0 -1 57 -35719244 -645732131 269266431 -1717785854
            -110151144 612685587 1273752030 1084614191</internalNodes>
          <leafValues>
            -3.4267607331275940e-001 2.0071391761302948e-001</leafValues></_>
        <_>
          <internalNodes>
            0 -1 130 2111120916 1897206143 -686076481 -108940435
            -131073607 -576853434 -158537284 673177176</internalNodes>
          <leafValues>
            -3.0540129542350769e-001 2.3060166835784912e-001</leafValues></_>
        <_>
          <internalNodes>
            0 -1 202 -32510874 -1319043175 -419814210 -1326289104
            -859876084 1985765220 -1090636164 -206311569</internalNodes>
          <leafValues>
            -2.4114546179771423e-001 2.9515284299850464e-001</leafValues></_>
        <_>
          <internalNodes>
            0 -1 90 -357072901 -458330114 -25215042 -1079365832
            -411178027 -1208528930 -8422423 -404750403</internalNodes>
          <leafValues>
            -2.1827977895736694e-001 3.3833155035972595e-001</leafValues></_>
        <_>
          <internalNodes>
            0 -1 138 1142173460 -639831079 -1699144303 -1613618645
            678026021 -204453206 -342926480 706743044</internalNodes>
          <leafValues>
            -5.2259749174118042e-001 1.4714749157428741e-001</leafValues></_>
        <_>
          <internalNodes>
            0 -1 60 -563611938 -587268540 1384788481 753857607
            -1051401532 -251353563 -476585650 205980226</internalNodes>
          <leafValues>
            -3.4311848878860474e-001 2.0764692127704620e-001</leafValues></_>
        <_>
          <internalNodes>
            0 -1 158 275250911 -1362323482 -1207747209 103369822
            -112614511 -1186752193 709803640 -1931628882</internalNodes>
          <leafValues>
            -3.0242788791656494e-001 2.3166947066783905e-001</leafValues></_>
        <_>
          <internalNodes>
            0 -1 28 -814030929 -744079989 -785413761 2106710433
            2034417697 978710662 1485918416 1157054707</internalNodes>
          <leafValues>
            -2.9072523117065430e-001 2.4563606083393097e-001</leafValues></_>
        <_>
          <internalNodes>
            0 -1 68 -423581096 397524802 1141623069 -49643448 32055799
            -1931388109 -106418770 231046134</internalNodes>
          <leafValues>
            -2.7360203862190247e-001 2.6437494158744812e-001</leafValues></_>
        <_>
          <internalNodes>
            0 -1 76 1839361526 1408553207 -551834658 -149394672
            -521367060 1444237313 1195050485 -1548482398</internalNodes>
          <leafValues>
            -3.1500452756881714e-001 2.1854768693447113e-001</leafValues></_>
        <_>
          <internalNodes>
            0 -1 192 -225719625 1994311778 -352064711 -1797013290
            -929005068 -1383224954 -1052384872 276296427</internalNodes>
          <leafValues>
            -2.7021366357803345e-001 2.6444706320762634e-001</leafValues></_>
        <_>
          <internalNodes>
            0 -1 85 -250286572 349652767 -1483363407 1033512524
            2012029421 -1384035898 -928063059 187164103</internalNodes>
          <leafValues>
            -2.8137540817260742e-001 2.6523894071578979e-001</leafValues></_>
        <_>
          <internalNodes>
            0 -1 7 1133440164 36689410 1663053280 -1479555456 78124000
            1213268683 -170458400 -1061431069</internalNodes>
          <leafValues>
            -3.6488541960716248e-001 2.1057748794555664e-001</leafValues></_></weakClassifiers></_>
    <!-- stage 15 -->
    <_>
      <maxWeakCount>20</maxWeakCount>
      <stageThreshold>-1.3460334539413452e+000</stageThreshold>
      <weakClassifiers>
        <_>
          <internalNodes>
            0 -1 66 1610577919 2079858143 -639682597 2147433434
            -76914691 2078874619 -6605057 -33</internalNodes>
          <leafValues>
            -5.6252449750900269e-001 -7.1212120354175568e-002</leafValues></_>
        <_>
          <internalNodes>
            0 -1 212 -105119939 863192870 -1403803020 819390162
            188553945 1072790523 737085598 1891364887</internalNodes>
          <leafValues>
            -3.0664405226707458e-001 2.1477249264717102e-001</leafValues></_>
        <_>
          <internalNodes>
            0 -1 70 -1614823521 -1646284321 1395913075 -1177122087
            333167007 -1140929793 -1516519425 8388746</internalNodes>
          <leafValues>
            -4.0137955546379089e-001 1.6907563805580139e-001</leafValues></_>
        <_>
          <internalNodes>
            0 -1 43 -184357038 -655313961 1573822171 -6443049 -427771504
            -53090347 1526948415 1975872784</internalNodes>
          <leafValues>
            -2.9859253764152527e-001 2.6564919948577881e-001</leafValues></_>
        <_>
          <internalNodes>
            0 -1 183 -33678299 -1117048998 -16794962 -139051061
            -1657926097 -1920991387 -587319558 -1766936806</internalNodes>
          <leafValues>
            -2.4753300845623016e-001 2.8062769770622253e-001</leafValues></_>
        <_>
          <internalNodes>
            0 -1 21 -9177297 -4521998 -274006153 -43720780 1693838558
            1878283381 -184685259 -993689549</internalNodes>
          <leafValues>
            -2.3455969989299774e-001 2.8741055727005005e-001</leafValues></_>
        <_>
          <internalNodes>
            0 -1 199 -203431954 945262020 182658146 -1833238870
            -779153656 1191691155 -503857940 -253243805</internalNodes>
          <leafValues>
            -3.1536370515823364e-001 2.1560885012149811e-001</leafValues></_>
        <_>
          <internalNodes>
            0 -1 94 1283370916 -178868302 327265781 2109319567
            2024009149 -1161811720 -201703557 992477184</internalNodes>
          <leafValues>
            -3.3210664987564087e-001 2.0265561342239380e-001</leafValues></_>
        <_>
          <internalNodes>
            0 -1 208 -721690469 1466330981 213827453 1399090908
            -1382490952 -17256588 -867115984 -1133656909</internalNodes>
          <leafValues>
            -2.1654847264289856e-001 3.0381774902343750e-001</leafValues></_>
        <_>
          <internalNodes>
            0 -1 147 225185556 475575108 -1254123051 -646381836
            -1957855115 -1183790717 119058172 177212680</internalNodes>
          <leafValues>
            -5.5370521545410156e-001 1.0567701607942581e-001</leafValues></_>
        <_>
          <internalNodes>
            0 -1 42 -171455524 -1087206310 -1821411279 -1612898606
            1994083535 2001959759 1794598360 1660925864</internalNodes>
          <leafValues>
            -2.8939661383628845e-001 2.3778684437274933e-001</leafValues></_>
        <_>
          <internalNodes>
            0 -1 77 1170616230 -825468052 -719839754 -7331560
            -1332776339 1415969757 -742316171 -146821521</internalNodes>
          <leafValues>
            -3.1832084059715271e-001 2.2172065079212189e-001</leafValues></_>
        <_>
          <internalNodes>
            0 -1 106 1189655252 -1275330444 -1139737445 -1245902879
            -1118006531 -874818631 -1276354087 7078500</internalNodes>
          <leafValues>
            -4.1274076700210571e-001 1.7164117097854614e-001</leafValues></_>
        <_>
          <internalNodes>
            0 -1 179 -320864476 415543605 -400631580 541672466
            -545080643 350337449 -69902180 279945355</internalNodes>
          <leafValues>
            -4.0599343180656433e-001 1.6609801352024078e-001</leafValues></_>
        <_>
          <internalNodes>
            0 -1 144 -2066456528 -1099109891 -1413016205 -17644685
            1000881149 -192284162 791677549 -1562636836</internalNodes>
          <leafValues>
            -3.4475535154342651e-001 1.8499013781547546e-001</leafValues></_>
        <_>
          <internalNodes>
            0 -1 10 -1019491688 772711978 -373054702 -1366329184
            1181270991 -1974679483 1775314816 -944379914</internalNodes>
          <leafValues>
            -2.7868163585662842e-001 2.5491344928741455e-001</leafValues></_>
        <_>
          <internalNodes>
            0 -1 216 -273429338 1021673334 -84480390 -1574731982
            2000589324 1562378070 -67211810 -1210060805</internalNodes>
          <leafValues>
            -2.2147253155708313e-001 3.0822849273681641e-001</leafValues></_>
        <_>
          <internalNodes>
            0 -1 207 -859926794 1395826483 753385168 -149881740
            -2078210616 -1900241764 1895731150 -245011385</internalNodes>
          <leafValues>
            -2.5073996186256409e-001 2.7180030941963196e-001</leafValues></_>
        <_>
          <internalNodes>
            0 -1 54 905600884 109142499 -65710190 259053248 582186718
            1017546911 1766787957 2129684436</internalNodes>
          <leafValues>
            -5.0567847490310669e-001 1.4238138496875763e-001</leafValues></_>
        <_>
          <internalNodes>
            0 -1 151 -1676643407 1037382984 -548367433 -1212411522
            -605901838 863864291 -1193530100 -1129839451</internalNodes>
          <leafValues>
            -2.8868740797042847e-001 2.4822172522544861e-001</leafValues></_></weakClassifiers></_>
    <!-- stage 16 -->
    <_>
      <maxWeakCount>20</maxWeakCount>
      <stageThreshold>-1.3758680820465088e+000</stageThreshold>
      <weakClassifiers>
        <_>
          <internalNodes>
            0 -1 169 -201326828 2004703516 -560806178 297626722
            -117052499 364665061 -1159017224 135255739</internalNodes>
          <leafValues>
            -6.2245428562164307e-001 -1.7229038476943970e-001</leafValues></_>
        <_>
          <internalNodes>
            0 -1 45 -805339657 595727700 -845562435 1028600208
            1927249279 2109681839 1719369388 1677718847</internalNodes>
          <leafValues>
            -3.3536663651466370e-001 1.9529178738594055e-001</leafValues></_>
        <_>
          <internalNodes>
            0 -1 153 2147429519 22616943 -855124457 1645641226
            2047587005 -318953088 -678954080 547633460</internalNodes>
          <leafValues>
            -5.7287365198135376e-001 1.0687725991010666e-001</leafValues></_>
        <_>
          <internalNodes>
            0 -1 107 -734529615 -1137315778 -1894443083 -1945649959
            -181698577 882176492 -639557234 145093791</internalNodes>
          <leafValues>
            -2.7621126174926758e-001 2.3974081873893738e-001</leafValues></_>
        <_>
          <internalNodes>
            0 -1 204 -1183842817 -1073743170 -1090572554 1014378487
            377468349 -1418858529 2130644925 -35674929</internalNodes>
          <leafValues>
            -2.1272522211074829e-001 2.9753148555755615e-001</leafValues></_>
        <_>
          <internalNodes>
            0 -1 108 193201172 -1173092359 -1717046919 1058553272
            -1038782499 -1088381759 -1599037955 35652744</internalNodes>
          <leafValues>
            -5.2928757667541504e-001 1.3671149313449860e-001</leafValues></_>
        <_>
          <internalNodes>
            0 -1 14 -1027540204 -2087616425 -1113255331 330744818
            1086364096 1480869349 -450504063 1406256454</internalNodes>
          <leafValues>
            -4.1906094551086426e-001 1.5442901849746704e-001</leafValues></_>
        <_>
          <internalNodes>
            0 -1 64 732055030 -259721754 -967347504 2142395378
            -1282607113 -747622217 84111284 -186811358</internalNodes>
          <leafValues>
            -3.0649620294570923e-001 2.1208757162094116e-001</leafValues></_>
        <_>
          <internalNodes>
            0 -1 201 -553656291 1594265702 -1070054736 -262604426
            1521226241 258972963 -387773748 -731659465</internalNodes>
          <leafValues>
            -2.5784710049629211e-001 2.4980945885181427e-001</leafValues></_>
        <_>
          <internalNodes>
            0 -1 164 -658753551 -134348811 -402661521 -537968917
            -276824409 -4194305 -285581605 -1146208865</internalNodes>
          <leafValues>
            -1.9100515544414520e-001 3.5314410924911499e-001</leafValues></_>
        <_>
          <internalNodes>
            0 -1 35 -431845430 -25992713 1972484605 -1074720273
            559997896 1898994647 641168361 1162037003</internalNodes>
          <leafValues>
            -2.9643183946609497e-001 2.2027108073234558e-001</leafValues></_>
        <_>
          <internalNodes>
            0 -1 224 -304120886 -354226201 -302076244 -118567124
            -1077955339 1155956669 -453007891 -185082413</internalNodes>
          <leafValues>
            -2.4014826118946075e-001 2.7529114484786987e-001</leafValues></_>
        <_>
          <internalNodes>
            0 -1 110 1873837520 -693018862 -1312451593 -1665591912
            -1147311111 536952670 -874379332 44182321</internalNodes>
          <leafValues>
            -4.6178713440895081e-001 1.4264400303363800e-001</leafValues></_>
        <_>
          <internalNodes>
            0 -1 58 -823726113 -309939354 -1764768846 1273692704
            17190346 -558073125 61235622 -973384077</internalNodes>
          <leafValues>
            -2.6115903258323669e-001 2.5488951802253723e-001</leafValues></_>
        <_>
          <internalNodes>
            0 -1 184 -24150912 991191758 -524689176 319334570
            -1259536360 306250320 -1808514492 75096138</internalNodes>
          <leafValues>
            -4.2023715376853943e-001 1.6280308365821838e-001</leafValues></_>
        <_>
          <internalNodes>
            0 -1 91 -1647018416 -341533772 -40489000 -1750453254
            -1660015695 1780739577 2003777241 -555011783</internalNodes>
          <leafValues>
            -3.0598887801170349e-001 2.0554929971694946e-001</leafValues></_>
        <_>
          <internalNodes>
            0 -1 133 -122268156 2124846 -112818962 298611403 -1550987034
            -1688335617 -1739265496 9960682</internalNodes>
          <leafValues>
            -4.0140932798385620e-001 1.6869293153285980e-001</leafValues></_>
        <_>
          <internalNodes>
            0 -1 46 1808682918 1514146734 -1854426760 -7161590
            -406227306 1986222325 1668273749 1199039611</internalNodes>
          <leafValues>
            -3.7892282009124756e-001 1.7144079506397247e-001</leafValues></_>
        <_>
          <internalNodes>
            0 -1 96 1197239972 1786037198 -1056333604 1424554890
            1928655712 -114117588 -1298283853 -668979448</internalNodes>
          <leafValues>
            -5.8026146888732910e-001 1.1143182218074799e-001</leafValues></_>
        <_>
          <internalNodes>
            0 -1 84 -930547152 134541554 -1492495951 -1205380117
            541603175 1151617094 -75859958 134309645</internalNodes>
          <leafValues>
            -4.5354098081588745e-001 1.4085049927234650e-001</leafValues></_></weakClassifiers></_>
    <!-- stage 17 -->
    <_>
      <maxWeakCount>21</maxWeakCount>
      <stageThreshold>-1.5835041999816895e+000</stageThreshold>
      <weakClassifiers>
        <_>
          <internalNodes>
            0 -1 55 -275841025 -211112606 -304233985 -2705934 98275327
            -6325783 2147310271 -35081</internalNodes>
          <leafValues>
            -5.0949519872665405e-001 5.1233395934104919e-002</leafValues></_>
        <_>
          <internalNodes>
            0 -1 172 -1109918476 -1123068580 738698975 -1247830306
            199827192 486388645 -1128128356 519032571</internalNodes>
          <leafValues>
            -3.9291715621948242e-001 1.4778402447700500e-001</leafValues></_>
        <_>
          <internalNodes>
            0 -1 39 778219284 -17503806 -837373963 1574713495 1836338971
            -386905347 993785743 1862340612</internalNodes>
          <leafValues>
            -3.5382604598999023e-001 1.7232908308506012e-001</leafValues></_>
        <_>
          <internalNodes>
            0 -1 61 -991760449 -671092770 -133 -1275306188 1192086909
            -17238033 2146211737 1149945003</internalNodes>
          <leafValues>
            -1.9581642746925354e-001 3.2161495089530945e-001</leafValues></_>
        <_>
          <internalNodes>
            0 -1 12 -43259646 -1884671742 -1592743936 627425202
            1258775505 683105712 1735852416 1618473762</internalNodes>
          <leafValues>
            -3.7609422206878662e-001 1.7378288507461548e-001</leafValues></_>
        <_>
          <internalNodes>
            0 -1 125 135278356 295214078 2146205649 -1647530699
            424678373 -8083725 -88602336 235668528</internalNodes>
          <leafValues>
            -5.4912662506103516e-001 1.1080192774534225e-001</leafValues></_>
        <_>
          <internalNodes>
            0 -1 223 -34054660 1021183702 253285086 -1613984204
            -246789472 -1191163903 -301402929 754546349</internalNodes>
          <leafValues>
            -3.7627267837524414e-001 1.6470421850681305e-001</leafValues></_>
        <_>
          <internalNodes>
            0 -1 198 -227023674 -365005019 1652255358 -264575026
            -1421820 2101772062 -419436882 -231027021</internalNodes>
          <leafValues>
            -2.3147338628768921e-001 2.8660240769386292e-001</leafValues></_>
        <_>
          <internalNodes>
            0 -1 99 1081396612 131899541 451463156 -1745600400
            -1059570715 940596085 -1999364467 82191442</internalNodes>
          <leafValues>
            -4.1662964224815369e-001 1.4559394121170044e-001</leafValues></_>
        <_>
          <internalNodes>
            0 -1 79 1355447285 756488573 1363206494 533599464 1837763235
            -779253691 2030255077 -355778234</internalNodes>
          <leafValues>
            -2.8914600610733032e-001 2.1473528444766998e-001</leafValues></_>
        <_>
          <internalNodes>
            0 -1 18 1758525114 -162552514 -1190800456 -310005318
            1363203456 -390495784 88424770 1169375823</internalNodes>
          <leafValues>
            -3.3349773287773132e-001 2.0070035755634308e-001</leafValues></_>
        <_>
          <internalNodes>
            0 -1 225 -1948713505 -1141080681 873672959 -1241717172
            573504479 455409959 -1685126657 -524096266</internalNodes>
          <leafValues>
            -2.8000822663307190e-001 2.3573480546474457e-001</leafValues></_>
        <_>
          <internalNodes>
            0 -1 93 -62477408 885829063 943523738 -38283110 -341836811
            -1917250760 -201352263 940574209</internalNodes>
          <leafValues>
            -3.9904978871345520e-001 1.6683265566825867e-001</leafValues></_>
        <_>
          <internalNodes>
            0 -1 215 -42769334 1663301600 -88954190 -230948884
            -134836724 175963997 -319164788 -1301283122</internalNodes>
          <leafValues>
            -2.3940403759479523e-001 2.8728720545768738e-001</leafValues></_>
        <_>
          <internalNodes>
            0 -1 195 -1435029924 2060731607 -1961770861 64283902
            -794114417 -20865488 -337057282 1376900375</internalNodes>
          <leafValues>
            -2.7394396066665649e-001 2.3934856057167053e-001</leafValues></_>
        <_>
          <internalNodes>
            0 -1 150 -559950308 849183044 491509662 33543459 -124016228
            -1674518516 -1808785768 784194479</internalNodes>
          <leafValues>
            -2.6575955748558044e-001 2.4913452565670013e-001</leafValues></_>
        <_>
          <internalNodes>
            0 -1 88 -1523679260 1004736506 -1217057520 -1177079516
            2077673531 592464378 -1896920619 1172466058</internalNodes>
          <leafValues>
            -3.6337789893150330e-001 1.7902413010597229e-001</leafValues></_>
        <_>
          <internalNodes>
            0 -1 145 130558517 -419663772 -1632126373 -1681857353
            -1455446077 -148757051 -1547722264 -2080625404</internalNodes>
          <leafValues>
            -3.3114123344421387e-001 1.9982931017875671e-001</leafValues></_>
        <_>
          <internalNodes>
            0 -1 22 -302857881 -1704554428 1900737219 -490544256
            -1716431907 -258645475 -380370460 -1498783625</internalNodes>
          <leafValues>
            -2.6065844297409058e-001 2.6158800721168518e-001</leafValues></_>
        <_>
          <internalNodes>
            0 -1 167 -82844400 1882497019 -314384957 417841535
            1536552405 -2002448119 -279725800 549174429</internalNodes>
          <leafValues>
            -3.2500532269477844e-001 2.1200388669967651e-001</leafValues></_>
        <_>
          <internalNodes>
            0 -1 219 -916826490 -692956677 -1870033918 847295228
            -1707441904 -1268352845 1904798284 -33374155</internalNodes>
          <leafValues>
            -2.9933273792266846e-001 2.2216884791851044e-001</leafValues></_></weakClassifiers></_></stages>
  <features>
    <_>
      <rect>
        0 0 5 4</rect></_>
    <_>
      <rect>
        0 0 5 5</rect></_>
    <_>
      <rect>
        0 0 7 2</rect></_>
    <_>
      <rect>
        0 0 10 1</rect></_>
    <_>
      <rect>
        0 0 10 3</rect></_>
    <_>
      <rect>
        0 1 4 5</rect></_>
    <_>
      <rect>
        0 1 8 4</rect></_>
    <_>
      <rect>
        0 2 3 2</rect></_>
    <_>
      <rect>
        0 3 3 1</rect></_>
    <_>
      <rect>
        0 3 4 2</rect></_>
    <_>
      <rect>
        0 4 2 2</rect></_>
    <_>
      <rect>
        0 4 2 7</rect></_>
    <_>
      <rect>
        0 4 3 2</rect></_>
    <_>
      <rect>
        0 4 3 7</rect></_>
    <_>
      <rect>
        0 4 7 6</rect></_>
    <_>
      <rect>
        0 5 3 7</rect></_>
    <_>
      <rect>
        0 6 5 5</rect></_>
    <_>
      <rect>
        0 8 3 6</rect></_>
    <_>
      <rect>
        0 8 6 3</rect></_>
    <_>
      <rect>
        0 8 6 5</rect></_>
    <_>
      <rect>
        0 10 2 6</rect></_>
    <_>
      <rect>
        0 12 3 4</rect></_>
    <_>
      <rect>
        0 13 1 1</rect></_>
    <_>
      <rect>
        0 13 7 2</rect></_>
    <_>
      <rect>
        0 15 2 3</rect></_>
    <_>
      <rect>
        0 15 3 3</rect></_>
    <_>
      <rect>
        0 17 2 4</rect></_>
    <_>
      <rect>
        0 19 6 2</rect></_>
    <_>
      <rect>
        0 20 2 3</rect></_>
    <_>
      <rect>
        0 21 3 3</rect></_>
    <_>
      <rect>
        0 22 3 3</rect></_>
    <_>
      <rect>
        0 22 7 1</rect></_>
    <_>
      <rect>
        0 22 7 2</rect></_>
    <_>
      <rect>
        0 23 1 2</rect></_>
    <_>
      <rect>
        0 23 3 2</rect></_>
    <_>
      <rect>
        0 23 5 2</rect></_>
    <_>
      <rect>
        0 23 7 2</rect></_>
    <_>
      <rect>
        0 24 1 2</rect></_>
    <_>
      <rect>
        0 24 3 2</rect></_>
    <_>
      <rect>
        0 24 7 1</rect></_>
    <_>
      <rect>
        0 24 9 2</rect></_>
    <_>
      <rect>
        0 25 2 2</rect></_>
    <_>
      <rect>
        0 25 3 2</rect></_>
    <_>
      <rect>
        0 25 9 2</rect></_>
    <_>
      <rect>
        0 26 1 2</rect></_>
    <_>
      <rect>
        0 26 2 2</rect></_>
    <_>
      <rect>
        0 26 3 1</rect></_>
    <_>
      <rect>
        0 26 9 2</rect></_>
    <_>
      <rect>
        0 27 3 1</rect></_>
    <_>
      <rect>
        0 28 4 1</rect></_>
    <_>
      <rect>
        0 29 1 1</rect></_>
    <_>
      <rect>
        0 29 2 1</rect></_>
    <_>
      <rect>
        0 29 3 1</rect></_>
    <_>
      <rect>
        0 29 5 1</rect></_>
    <_>
      <rect>
        0 29 7 1</rect></_>
    <_>
      <rect>
        1 0 5 1</rect></_>
    <_>
      <rect>
        1 0 5 3</rect></_>
    <_>
      <rect>
        1 0 10 2</rect></_>
    <_>
      <rect>
        1 1 4 2</rect></_>
    <_>
      <rect>
        1 1 6 3</rect></_>
    <_>
      <rect>
        1 10 9 3</rect></_>
    <_>
      <rect>
        1 20 3 3</rect></_>
    <_>
      <rect>
        1 23 4 3</rect></_>
    <_>
      <rect>
        1 26 3 2</rect></_>
    <_>
      <rect>
        1 27 5 1</rect></_>
    <_>
      <rect>
        1 28 7 1</rect></_>
    <_>
      <rect>
        1 29 2 1</rect></_>
    <_>
      <rect>
        1 29 4 1</rect></_>
    <_>
      <rect>
        2 1 8 1</rect></_>
    <_>
      <rect>
        2 4 1 1</rect></_>
    <_>
      <rect>
        2 17 4 5</rect></_>
    <_>
      <rect>
        2 23 8 1</rect></_>
    <_>
      <rect>
        2 23 8 2</rect></_>
    <_>
      <rect>
        2 24 3 2</rect></_>
    <_>
      <rect>
        2 25 3 2</rect></_>
    <_>
      <rect>
        2 26 4 2</rect></_>
    <_>
      <rect>
        2 26 5 1</rect></_>
    <_>
      <rect>
        2 27 3 1</rect></_>
    <_>
      <rect>
        2 27 5 1</rect></_>
    <_>
      <rect>
        2 29 7 1</rect></_>
    <_>
      <rect>
        2 29 10 1</rect></_>
    <_>
      <rect>
        3 1 4 2</rect></_>
    <_>
      <rect>
        3 1 9 5</rect></_>
    <_>
      <rect>
        3 5 1 1</rect></_>
    <_>
      <rect>
        3 7 9 3</rect></_>
    <_>
      <rect>
        3 8 9 2</rect></_>
    <_>
      <rect>
        3 20 5 1</rect></_>
    <_>
      <rect>
        3 23 5 1</rect></_>
    <_>
      <rect>
        3 25 3 2</rect></_>
    <_>
      <rect>
        3 25 8 2</rect></_>
    <_>
      <rect>
        3 28 2 1</rect></_>
    <_>
      <rect>
        3 29 3 1</rect></_>
    <_>
      <rect>
        3 29 5 1</rect></_>
    <_>
      <rect>
        4 21 8 2</rect></_>
    <_>
      <rect>
        4 23 7 1</rect></_>
    <_>
      <rect>
        4 29 4 1</rect></_>
    <_>
      <rect>
        5 4 6 7</rect></_>
    <_>
      <rect>
        5 5 9 9</rect></_>
    <_>
      <rect>
        5 9 9 3</rect></_>
    <_>
      <rect>
        5 15 6 1</rect></_>
    <_>
      <rect>
        5 20 9 2</rect></_>
    <_>
      <rect>
        5 29 3 1</rect></_>
    <_>
      <rect>
        6 19 4 1</rect></_>
    <_>
      <rect>
        6 23 4 1</rect></_>
    <_>
      <rect>
        6 24 3 1</rect></_>
    <_>
      <rect>
        7 0 3 1</rect></_>
    <_>
      <rect>
        7 0 5 2</rect></_>
    <_>
      <rect>
        7 6 8 2</rect></_>
    <_>
      <rect>
        7 22 2 1</rect></_>
    <_>
      <rect>
        7 22 4 1</rect></_>
    <_>
      <rect>
        7 25 3 2</rect></_>
    <_>
      <rect>
        8 0 8 3</rect></_>
    <_>
      <rect>
        8 0 8 5</rect></_>
    <_>
      <rect>
        8 7 8 2</rect></_>
    <_>
      <rect>
        8 14 8 6</rect></_>
    <_>
      <rect>
        8 23 8 2</rect></_>
    <_>
      <rect>
        8 24 4 1</rect></_>
    <_>
      <rect>
        8 24 8 2</rect></_>
    <_>
      <rect>
        9 0 2 1</rect></_>
    <_>
      <rect>
        9 14 3 1</rect></_>
    <_>
      <rect>
        9 18 3 1</rect></_>
    <_>
      <rect>
        9 21 3 1</rect></_>
    <_>
      <rect>
        9 25 5 1</rect></_>
    <_>
      <rect>
        9 29 5 1</rect></_>
    <_>
      <rect>
        10 18 2 1</rect></_>
    <_>
      <rect>
        10 18 3 1</rect></_>
    <_>
      <rect>
        10 19 4 1</rect></_>
    <_>
      <rect>
        10 21 3 1</rect></_>
    <_>
      <rect>
        10 22 2 1</rect></_>
    <_>
      <rect>
        10 23 4 1</rect></_>
    <_>
      <rect>
        10 24 7 1</rect></_>
    <_>
      <rect>
        10 25 7 2</rect></_>
    <_>
      <rect>
        11 0 3 1</rect></_>
    <_>
      <rect>
        11 1 7 2</rect></_>
    <_>
      <rect>
        11 16 2 1</rect></_>
    <_>
      <rect>
        11 17 3 1</rect></_>
    <_>
      <rect>
        11 19 1 1</rect></_>
    <_>
      <rect>
        11 20 2 1</rect></_>
    <_>
      <rect>
        11 21 3 1</rect></_>
    <_>
      <rect>
        11 22 7 2</rect></_>
    <_>
      <rect>
        11 26 5 2</rect></_>
    <_>
      <rect>
        11 27 2 1</rect></_>
    <_>
      <rect>
        12 17 2 1</rect></_>
    <_>
      <rect>
        12 29 3 1</rect></_>
    <_>
      <rect>
        13 9 2 1</rect></_>
    <_>
      <rect>
        13 13 2 1</rect></_>
    <_>
      <rect>
        13 18 2 1</rect></_>
    <_>
      <rect>
        13 25 2 1</rect></_>
    <_>
      <rect>
        13 26 2 1</rect></_>
    <_>
      <rect>
        13 28 1 1</rect></_>
    <_>
      <rect>
        14 1 6 1</rect></_>
    <_>
      <rect>
        14 8 2 1</rect></_>
    <_>
      <rect>
        14 10 1 1</rect></_>
    <_>
      <rect>
        14 16 6 5</rect></_>
    <_>
      <rect>
        14 17 2 1</rect></_>
    <_>
      <rect>
        14 21 2 1</rect></_>
    <_>
      <rect>
        14 26 6 2</rect></_>
    <_>
      <rect>
        14 29 3 1</rect></_>
    <_>
      <rect>
        14 29 5 1</rect></_>
    <_>
      <rect>
        14 29 6 1</rect></_>
    <_>
      <rect>
        15 0 1 1</rect></_>
    <_>
      <rect>
        15 25 4 1</rect></_>
    <_>
      <rect>
        17 0 2 1</rect></_>
    <_>
      <rect>
        17 0 5 2</rect></_>
    <_>
      <rect>
        17 1 1 1</rect></_>
    <_>
      <rect>
        17 8 1 1</rect></_>
    <_>
      <rect>
        17 8 5 5</rect></_>
    <_>
      <rect>
        17 22 5 1</rect></_>
    <_>
      <rect>
        17 24 5 2</rect></_>
    <_>
      <rect>
        17 25 5 1</rect></_>
    <_>
      <rect>
        17 29 5 1</rect></_>
    <_>
      <rect>
        18 14 1 6</rect></_>
    <_>
      <rect>
        19 26 4 2</rect></_>
    <_>
      <rect>
        20 0 4 7</rect></_>
    <_>
      <rect>
        20 3 4 7</rect></_>
    <_>
      <rect>
        20 6 4 5</rect></_>
    <_>
      <rect>
        20 9 4 2</rect></_>
    <_>
      <rect>
        20 10 1 1</rect></_>
    <_>
      <rect>
        20 11 4 5</rect></_>
    <_>
      <rect>
        20 24 4 1</rect></_>
    <_>
      <rect>
        20 26 4 2</rect></_>
    <_>
      <rect>
        20 29 3 1</rect></_>
    <_>
      <rect>
        20 29 4 1</rect></_>
    <_>
      <rect>
        22 0 1 1</rect></_>
    <_>
      <rect>
        22 3 3 3</rect></_>
    <_>
      <rect>
        22 29 3 1</rect></_>
    <_>
      <rect>
        23 1 3 8</rect></_>
    <_>
      <rect>
        23 2 3 2</rect></_>
    <_>
      <rect>
        23 3 3 5</rect></_>
    <_>
      <rect>
        23 4 3 2</rect></_>
    <_>
      <rect>
        23 4 3 7</rect></_>
    <_>
      <rect>
        23 10 3 6</rect></_>
    <_>
      <rect>
        23 12 3 3</rect></_>
    <_>
      <rect>
        23 14 3 4</rect></_>
    <_>
      <rect>
        23 18 3 2</rect></_>
    <_>
      <rect>
        23 19 3 4</rect></_>
    <_>
      <rect>
        23 25 3 2</rect></_>
    <_>
      <rect>
        23 29 3 1</rect></_>
    <_>
      <rect>
        24 3 1 1</rect></_>
    <_>
      <rect>
        24 4 2 1</rect></_>
    <_>
      <rect>
        24 5 1 1</rect></_>
    <_>
      <rect>
        25 1 2 1</rect></_>
    <_>
      <rect>
        25 5 1 1</rect></_>
    <_>
      <rect>
        25 5 2 4</rect></_>
    <_>
      <rect>
        25 29 2 1</rect></_>
    <_>
      <rect>
        26 3 1 1</rect></_>
    <_>
      <rect>
        26 5 1 1</rect></_>
    <_>
      <rect>
        26 5 2 3</rect></_>
    <_>
      <rect>
        26 6 2 5</rect></_>
    <_>
      <rect>
        26 16 2 3</rect></_>
    <_>
      <rect>
        26 18 2 3</rect></_>
    <_>
      <rect>
        26 19 2 2</rect></_>
    <_>
      <rect>
        26 24 2 2</rect></_>
    <_>
      <rect>
        26 26 2 2</rect></_>
    <_>
      <rect>
        26 29 2 1</rect></_>
    <_>
      <rect>
        27 3 1 1</rect></_>
    <_>
      <rect>
        27 4 1 1</rect></_>
    <_>
      <rect>
        27 5 1 1</rect></_>
    <_>
      <rect>
        27 6 1 1</rect></_>
    <_>
      <rect>
        29 0 1 1</rect></_>
    <_>
      <rect>
        29 19 1 1</rect></_>
    <_>
      <rect>
        29 19 1 2</rect></_>
    <_>
      <rect>
        29 20 1 2</rect></_>
    <_>
      <rect>
        29 20 1 4</rect></_>
    <_>
      <rect>
        29 22 1 1</rect></_>
    <_>
      <rect>
        29 26 1 2</rect></_>
    <_>
      <rect>
        29 29 1 1</rect></_></features></cascade>
</opencv_storage>
