<?xml version="1.0"?>
<opencv_storage>
<cascade>
  <stageType>BOOST</stageType>
  <featureType>LBP</featureType>
  <height>24</height>
  <width>24</width>
  <stageParams>
    <boostType>GAB</boostType>
    <minHitRate>9.9900001287460327e-001</minHitRate>
    <maxFalseAlarm>3.4999999403953552e-001</maxFalseAlarm>
    <weightTrimRate>9.4999999999999996e-001</weightTrimRate>
    <maxDepth>1</maxDepth>
    <maxWeakCount>100</maxWeakCount></stageParams>
  <featureParams>
    <maxCatCount>256</maxCatCount>
    <featSize>1</featSize></featureParams>
  <stageNum>20</stageNum>
  <stages>
    <!-- stage 0 -->
    <_>
      <maxWeakCount>9</maxWeakCount>
      <stageThreshold>-9.7406965494155884e-001</stageThreshold>
      <weakClassifiers>
        <_>
          <internalNodes>
            0 -1 15 -25106228 -587021952 -1002385960 -196947944
            -778703928 1946190848 -1987739398 -204091696</internalNodes>
          <leafValues>
            -6.5394401550292969e-001 4.8765432834625244e-001</leafValues></_>
        <_>
          <internalNodes>
            0 -1 243 -1393057541 -1600518089 -1342107400 -1537023361
            194634730 -867990653 -1946195723 -1931490307</internalNodes>
          <leafValues>
            -5.1335018873214722e-001 5.3042638301849365e-001</leafValues></_>
        <_>
          <internalNodes>
            0 -1 53 1942565705 -1856036197 -1961592833 -64251565
            -1681565645 -361821347 -970298509 -10016203</internalNodes>
          <leafValues>
            -5.0146758556365967e-001 4.9699592590332031e-001</leafValues></_>
        <_>
          <internalNodes>
            0 -1 143 748175156 1032896753 -2138877602 -74137322
            562079997 -1346797528 -2130156312 754739488</internalNodes>
          <leafValues>
            -6.4013743400573730e-001 4.2742863297462463e-001</leafValues></_>
        <_>
          <internalNodes>
            0 -1 162 -444087640 -1827635200 -1071918831 -117260079
            -519535908 1524777352 -1733572436 -1866468129</internalNodes>
          <leafValues>
            -5.2922475337982178e-001 5.0065863132476807e-001</leafValues></_>
        <_>
          <internalNodes>
            0 -1 28 -926488706 -995702722 -662622746 -1038565238
            1351034103 1086510165 -432856414 -755041744</internalNodes>
          <leafValues>
            -5.9380978345870972e-001 4.3420252203941345e-001</leafValues></_>
        <_>
          <internalNodes>
            0 -1 98 762391359 297029671 520147087 505142097 2065042107
            942483842 -368239973 619960320</internalNodes>
          <leafValues>
            -5.7516354322433472e-001 4.7732403874397278e-001</leafValues></_>
        <_>
          <internalNodes>
            0 -1 40 -54532257 -286458050 -1091125702 1625976252
            -1887987897 -302541058 -545917664 -748194046</internalNodes>
          <leafValues>
            -4.9351352453231812e-001 5.8239448070526123e-001</leafValues></_>
        <_>
          <internalNodes>
            0 -1 118 767861804 285287349 156027062 -1111113297
            1217325167 -465333104 -1391526388 16013332</internalNodes>
          <leafValues>
            -7.1672940254211426e-001 3.9649060368537903e-001</leafValues></_></weakClassifiers></_>
    <!-- stage 1 -->
    <_>
      <maxWeakCount>11</maxWeakCount>
      <stageThreshold>-8.3723342418670654e-001</stageThreshold>
      <weakClassifiers>
        <_>
          <internalNodes>
            0 -1 56 2146262997 -4751361 -268468229 -541343879 2004237631
            2146795381 -688257 2138275639</internalNodes>
          <leafValues>
            -4.4636014103889465e-001 5.6262040138244629e-001</leafValues></_>
        <_>
          <internalNodes>
            0 -1 8 -287128326 -19234822 -270614538 -285676037 1592831134
            -18022401 1475870537 -3938329</internalNodes>
          <leafValues>
            -4.5409765839576721e-001 5.4164004325866699e-001</leafValues></_>
        <_>
          <internalNodes>
            0 -1 217 536870905 167722749 -268435715 -1497367554
            -1208483937 -1526726657 -1107324947 -2000687617</internalNodes>
          <leafValues>
            -4.0086665749549866e-001 5.6780141592025757e-001</leafValues></_>
        <_>
          <internalNodes>
            0 -1 150 691012660 -1613459429 385991151 -1109557195
            -1457474625 -1081883303 -1127617601 754987577</internalNodes>
          <leafValues>
            -6.0030490159988403e-001 3.9806738495826721e-001</leafValues></_>
        <_>
          <internalNodes>
            0 -1 109 -1494964432 1674593180 -1853423147 -36304595
            1179230444 -68803602 1001074601 -2001181516</internalNodes>
          <leafValues>
            -5.8860784769058228e-001 3.4660559892654419e-001</leafValues></_>
        <_>
          <internalNodes>
            0 -1 24 1276938222 675340578 1884570628 -398155440
            -1064189470 -880735856 -1072019791 -925654233</internalNodes>
          <leafValues>
            -5.2262789011001587e-001 4.4144248962402344e-001</leafValues></_>
        <_>
          <internalNodes>
            0 -1 201 -966273009 616615965 -939493214 303453441
            1351680577 1116143748 -519065354 -500698969</internalNodes>
          <leafValues>
            -4.8745208978652954e-001 4.9827042222023010e-001</leafValues></_>
        <_>
          <internalNodes>
            0 -1 54 -9601799 1865318398 2129559403 2101247539 -25217178
            -554205323 -545884857 -1108083349</internalNodes>
          <leafValues>
            -4.4511464238166809e-001 5.2992564439773560e-001</leafValues></_>
        <_>
          <internalNodes>
            0 -1 212 -292564992 490379448 357145457 -544370492
            -117206272 563759298 304648448 -525743306</internalNodes>
          <leafValues>
            -5.7170468568801880e-001 4.3573537468910217e-001</leafValues></_>
        <_>
          <internalNodes>
            0 -1 136 136754453 699744449 -1871380131 -1223679995
            -913800519 227451520 -1688417668 204543433</internalNodes>
          <leafValues>
            -6.0160219669342041e-001 4.2765745520591736e-001</leafValues></_>
        <_>
          <internalNodes>
            0 -1 4 -6363650 -1126104929 524555 1838825776 -1739165514
            -1576435046 445525615 770909187</internalNodes>
          <leafValues>
            -6.1239129304885864e-001 3.9812663197517395e-001</leafValues></_></weakClassifiers></_>
    <!-- stage 2 -->
    <_>
      <maxWeakCount>9</maxWeakCount>
      <stageThreshold>-6.5129464864730835e-001</stageThreshold>
      <weakClassifiers>
        <_>
          <internalNodes>
            0 -1 52 -134513293 2139062269 -16795866 2058387071 -573625
            2134900599 -9011376 -29919373</internalNodes>
          <leafValues>
            -4.1959333419799805e-001 5.7200002670288086e-001</leafValues></_>
        <_>
          <internalNodes>
            0 -1 244 -1342178305 175111352 754974685 -1929936897
            -1090519057 -1931476994 -1610615299 -1896087553</internalNodes>
          <leafValues>
            -3.8228732347488403e-001 6.0784417390823364e-001</leafValues></_>
        <_>
          <internalNodes>
            0 -1 28 -289494273 -320016657 1844948975 -926012818
            -915001473 -456919049 -965214473 -958138413</internalNodes>
          <leafValues>
            -4.4503581523895264e-001 5.6508672237396240e-001</leafValues></_>
        <_>
          <internalNodes>
            0 -1 131 -319522851 -10758835 -469386593 -840238756
            -1045249699 -886783671 -1049967652 -1666710268</internalNodes>
          <leafValues>
            -6.4735418558120728e-001 3.3777788281440735e-001</leafValues></_>
        <_>
          <internalNodes>
            0 -1 187 -9444340 952308179 -1929192309 715098374
            -1052037371 -1153054201 -1064683248 -110626963</internalNodes>
          <leafValues>
            -4.8511961102485657e-001 4.8047986626625061e-001</leafValues></_>
        <_>
          <internalNodes>
            0 -1 79 -283640029 -1528724098 822102858 -492655742
            100748100 1098518795 -1257626781 -1500023177</internalNodes>
          <leafValues>
            -5.5766391754150391e-001 4.2218518257141113e-001</leafValues></_>
        <_>
          <internalNodes>
            0 -1 120 197998973 1611619775 -306174137 516039560
            -1693575388 -1081401263 -1178394736 582756164</internalNodes>
          <leafValues>
            -7.2891169786453247e-001 3.0378451943397522e-001</leafValues></_>
        <_>
          <internalNodes>
            0 -1 166 362029681 -57090540 6410681 -372751084 -1559794951
            -106882902 -1731710407 -1087049392</internalNodes>
          <leafValues>
            -5.0527304410934448e-001 4.4840320944786072e-001</leafValues></_>
        <_>
          <internalNodes>
            0 -1 38 -135270921 -1209819162 -268502025 -501022744
            -151388681 -411893769 2112272374 -40484025</internalNodes>
          <leafValues>
            -3.6431264877319336e-001 6.6970664262771606e-001</leafValues></_></weakClassifiers></_>
    <!-- stage 3 -->
    <_>
      <maxWeakCount>11</maxWeakCount>
      <stageThreshold>-6.6855579614639282e-001</stageThreshold>
      <weakClassifiers>
        <_>
          <internalNodes>
            0 -1 53 -1141228227 -557063 2147319545 -295045 -1208142226
            -578846857 1651343231 -8421777</internalNodes>
          <leafValues>
            -3.2888147234916687e-001 5.7918554544448853e-001</leafValues></_>
        <_>
          <internalNodes>
            0 -1 123 1016085500 -205643107 119640987 -1076880897
            887346017 -616396664 -368015126 -1074132195</internalNodes>
          <leafValues>
            -4.3454435467720032e-001 4.5267617702484131e-001</leafValues></_>
        <_>
          <internalNodes>
            0 -1 244 607986935 -1413050242 -1737149475 -2137325424
            -1324708885 -2004774526 403497709 -1930715729</internalNodes>
          <leafValues>
            -5.0688052177429199e-001 4.0258502960205078e-001</leafValues></_>
        <_>
          <internalNodes>
            0 -1 145 -1794104140 -242200227 -1407581497 -1615507072
            -1157076919 -886522998 -1551059284 -1633930076</internalNodes>
          <leafValues>
            -5.5729234218597412e-001 3.5317695140838623e-001</leafValues></_>
        <_>
          <internalNodes>
            0 -1 186 -682370816 -1760919552 -1877946351 -729771892
            -2104913527 -1065320447 -2130651040 -133173301</internalNodes>
          <leafValues>
            -4.6639233827590942e-001 4.3953850865364075e-001</leafValues></_>
        <_>
          <internalNodes>
            0 -1 86 353392469 1493712914 -787932331 -1656749819
            958405282 -1109390336 464280714 1609581154</internalNodes>
          <leafValues>
            -5.2012413740158081e-001 3.8515186309814453e-001</leafValues></_>
        <_>
          <internalNodes>
            0 -1 195 -1190934561 -1701784957 -1857912824 -1855605917
            -1035893573 864649250 270782716 211016175</internalNodes>
          <leafValues>
            -3.9471384882926941e-001 4.8315566778182983e-001</leafValues></_>
        <_>
          <internalNodes>
            0 -1 62 -753797278 3173517 38801538 -1571041646 -343165871
            2030242121 -2035676255 -457442975</internalNodes>
          <leafValues>
            -4.6246293187141418e-001 4.7063294053077698e-001</leafValues></_>
        <_>
          <internalNodes>
            0 -1 31 1324256982 -134304513 -16793617 -1510871174
            610709402 -25829889 -37749027 -70179362</internalNodes>
          <leafValues>
            -3.8649493455886841e-001 5.5668210983276367e-001</leafValues></_>
        <_>
          <internalNodes>
            0 -1 147 224671096 -1189297135 -603764393 -1090469617
            1674085097 -340375125 -1702339347 780675642</internalNodes>
          <leafValues>
            -6.4486020803451538e-001 3.0544701218605042e-001</leafValues></_>
        <_>
          <internalNodes>
            0 -1 138 -912728139 -570877295 50418149 529926149 -918448120
            2038473101 -1071413204 608045754</internalNodes>
          <leafValues>
            -4.7491991519927979e-001 4.3929669260978699e-001</leafValues></_></weakClassifiers></_>
    <!-- stage 4 -->
    <_>
      <maxWeakCount>13</maxWeakCount>
      <stageThreshold>-7.7929890155792236e-001</stageThreshold>
      <weakClassifiers>
        <_>
          <internalNodes>
            0 -1 232 -13635806 -391250049 -188284976 653180906
            -581046784 73627509 1717552400 -261894217</internalNodes>
          <leafValues>
            -4.0661686658859253e-001 4.3580785393714905e-001</leafValues></_>
        <_>
          <internalNodes>
            0 -1 50 1859385975 2010251538 -2095328880 2038629918
            319347132 142704714 -2127854104 1613029584</internalNodes>
          <leafValues>
            -5.3876572847366333e-001 2.9779639840126038e-001</leafValues></_>
        <_>
          <internalNodes>
            0 -1 55 818894165 1905993066 -1039657711 -678145790
            199370754 1023561770 26372641 1932748389</internalNodes>
          <leafValues>
            -6.2577748298645020e-001 2.3502294719219208e-001</leafValues></_>
        <_>
          <internalNodes>
            0 -1 139 -85992808 1431184130 -905866729 -1857642477
            -645168371 -232172544 499722 223214875</internalNodes>
          <leafValues>
            -4.5678120851516724e-001 3.6197128891944885e-001</leafValues></_>
        <_>
          <internalNodes>
            0 -1 242 -1230018305 -2092039915 189816978 35897623
            268632291 -1828499437 432228416 -2000694021</internalNodes>
          <leafValues>
            -4.2108175158500671e-001 3.6433917284011841e-001</leafValues></_>
        <_>
          <internalNodes>
            0 -1 25 -362886168 1363362704 -2113777517 1770062096
            689651945 -360038258 420149673 -385105497</internalNodes>
          <leafValues>
            -4.1452962160110474e-001 3.8314086198806763e-001</leafValues></_>
        <_>
          <internalNodes>
            0 -1 208 -106169072 -729841857 -1095848012 842657582
            2122243644 -318775545 1861709721 -802162849</internalNodes>
          <leafValues>
            -3.1226879358291626e-001 4.9276340007781982e-001</leafValues></_>
        <_>
          <internalNodes>
            0 -1 152 1033633949 1393721349 1610805311 855095441
            -337116244 -493125623 -912717127 -1410325192</internalNodes>
          <leafValues>
            -4.9415847659111023e-001 3.1287318468093872e-001</leafValues></_>
        <_>
          <internalNodes>
            0 -1 10 -298850366 -18880889 780029915 -257101876
            -1482926143 1316880117 652686852 -791692286</internalNodes>
          <leafValues>
            -3.8282909989356995e-001 4.6265837550163269e-001</leafValues></_>
        <_>
          <internalNodes>
            0 -1 71 -795813746 -791109438 -805191425 -718253946 50362553
            -972291430 -1869755730 2057993270</internalNodes>
          <leafValues>
            -4.0534174442291260e-001 3.9916419982910156e-001</leafValues></_>
        <_>
          <internalNodes>
            0 -1 205 -66075501 1461850834 -2112585200 218332240
            1208112472 1243744271 1208600732 -786276009</internalNodes>
          <leafValues>
            -4.1032370924949646e-001 4.1383332014083862e-001</leafValues></_>
        <_>
          <internalNodes>
            0 -1 192 -175581656 -993476592 22021401 340461249 1804845707
            -803131320 -2084441920 -2065702205</internalNodes>
          <leafValues>
            -4.2709299921989441e-001 4.0360251069068909e-001</leafValues></_>
        <_>
          <internalNodes>
            0 -1 76 -668871118 336454146 20971523 269041795 -526671399
            -218103292 144281742 -2139101117</internalNodes>
          <leafValues>
            -3.9733129739761353e-001 4.4308447837829590e-001</leafValues></_></weakClassifiers></_>
    <!-- stage 5 -->
    <_>
      <maxWeakCount>14</maxWeakCount>
      <stageThreshold>-6.2450051307678223e-001</stageThreshold>
      <weakClassifiers>
        <_>
          <internalNodes>
            0 -1 53 -237273745 -545816579 -1073905921 -545525767
            -536914377 -42500233 -68195465 -524681</internalNodes>
          <leafValues>
            -2.6973685622215271e-001 5.1501154899597168e-001</leafValues></_>
        <_>
          <internalNodes>
            0 -1 124 703082708 -76101191 -1455287971 -1248414413
            -1192181527 -339005831 -1702436709 195561632</internalNodes>
          <leafValues>
            -5.1136243343353271e-001 2.9904213547706604e-001</leafValues></_>
        <_>
          <internalNodes>
            0 -1 84 1800303228 893969562 -721382085 1060519998
            1224743386 -20935797 444915391 -701230304</internalNodes>
          <leafValues>
            -4.4713419675827026e-001 3.2568895816802979e-001</leafValues></_>
        <_>
          <internalNodes>
            0 -1 16 -486887821 -868036638 -1359139672 250978029
            259164156 -2065793285 -1661516426 -2005667845</internalNodes>
          <leafValues>
            -3.6134195327758789e-001 4.4391575455665588e-001</leafValues></_>
        <_>
          <internalNodes>
            0 -1 126 -1402932524 -2116185126 -345382713 -1612229991
            -1447162312 1495515148 -1156709457 -1162346252</internalNodes>
          <leafValues>
            -4.4718611240386963e-001 3.5140514373779297e-001</leafValues></_>
        <_>
          <internalNodes>
            0 -1 42 -187733044 -294999857 -1040183136 -636485244
            -796901364 -1316995062 -494219178 -231561422</internalNodes>
          <leafValues>
            -4.5898422598838806e-001 3.5800260305404663e-001</leafValues></_>
        <_>
          <internalNodes>
            0 -1 170 377011897 468927941 -914356587 -1655549927
            -41336643 -1417467736 547033593 229801996</internalNodes>
          <leafValues>
            -5.2823853492736816e-001 3.5295894742012024e-001</leafValues></_>
        <_>
          <internalNodes>
            0 -1 216 -465570555 796425647 -285262153 -1241514256
            1323233166 -1058013193 -1518469912 -2009080585</internalNodes>
          <leafValues>
            -3.7455207109451294e-001 4.6363681554794312e-001</leafValues></_>
        <_>
          <internalNodes>
            0 -1 36 -952043524 1560685611 16980137 -830465914 35652812
            -397770587 598748079 1271096850</internalNodes>
          <leafValues>
            -4.8111554980278015e-001 3.7802529335021973e-001</leafValues></_>
        <_>
          <internalNodes>
            0 -1 77 -1459161397 -1066771022 20514 -233308152 167969061
            44474561 1243287574 -261913885</internalNodes>
          <leafValues>
            -4.9767088890075684e-001 3.3818432688713074e-001</leafValues></_>
        <_>
          <internalNodes>
            0 -1 203 -267455869 323142100 -309198734 673387522
            1750827265 -534085086 2116463543 1596701219</internalNodes>
          <leafValues>
            -4.2738172411918640e-001 4.1512537002563477e-001</leafValues></_>
        <_>
          <internalNodes>
            0 -1 155 604792757 1351136066 -804917119 -37531309
            -360349509 -1425686501 -569717266 748218880</internalNodes>
          <leafValues>
            -5.4611206054687500e-001 3.4430876374244690e-001</leafValues></_>
        <_>
          <internalNodes>
            0 -1 125 62267773 -736557640 1410551965 -1856104055
            -1962904592 -485424998 -536208429 720928034</internalNodes>
          <leafValues>
            -5.6520563364028931e-001 2.8302100300788879e-001</leafValues></_>
        <_>
          <internalNodes>
            0 -1 221 -217423447 1132741251 -1073594236 1619546139
            -2006381818 940189953 -754916734 -264296176</internalNodes>
          <leafValues>
            -4.3460550904273987e-001 3.9681389927864075e-001</leafValues></_></weakClassifiers></_>
    <!-- stage 6 -->
    <_>
      <maxWeakCount>15</maxWeakCount>
      <stageThreshold>-1.2230445146560669e+000</stageThreshold>
      <weakClassifiers>
        <_>
          <internalNodes>
            0 -1 211 -8397053 -121667599 -1346437259 -1231683633
            -33554684 -1350568100 -1243093628 -2073110529</internalNodes>
          <leafValues>
            -3.1001889705657959e-001 4.3554687500000000e-001</leafValues></_>
        <_>
          <internalNodes>
            0 -1 47 -589305288 1980383690 940000258 -1495108543
            1755541587 1209205395 -498966976 -161293513</internalNodes>
          <leafValues>
            -4.0178814530372620e-001 3.5921192169189453e-001</leafValues></_>
        <_>
          <internalNodes>
            0 -1 97 1996574553 -36691482 16777503 -612889775 948456187
            -1339406920 1841985466 -550492062</internalNodes>
          <leafValues>
            -3.7673309445381165e-001 3.8656347990036011e-001</leafValues></_>
        <_>
          <internalNodes>
            0 -1 175 740561021 1945827903 -1346702535 1606287102
            -41947670 -704518 -587342593 -1686628937</internalNodes>
          <leafValues>
            -3.5853403806686401e-001 4.0698286890983582e-001</leafValues></_>
        <_>
          <internalNodes>
            0 -1 240 -1463829531 235180365 671286280 -1906920701
            157516213 -1472953790 -1609613304 83091679</internalNodes>
          <leafValues>
            -4.4261297583580017e-001 3.3273234963417053e-001</leafValues></_>
        <_>
          <internalNodes>
            0 -1 59 -863799590 -1451490034 550887826 -678264702
            168468892 -1160081269 562067867 -693157822</internalNodes>
          <leafValues>
            -3.5436132550239563e-001 4.2235442996025085e-001</leafValues></_>
        <_>
          <internalNodes>
            0 -1 133 571485628 1476692441 558370897 -2046948212
            -95921623 -1153332730 1242041244 39863860</internalNodes>
          <leafValues>
            -7.6052314043045044e-001 1.8538400530815125e-001</leafValues></_>
        <_>
          <internalNodes>
            0 -1 167 -1818690672 -196865791 1344274693 -1861005031
            -1205130771 -2146794874 -1732147063 -2068843018</internalNodes>
          <leafValues>
            -3.9356902241706848e-001 3.9010876417160034e-001</leafValues></_>
        <_>
          <internalNodes>
            0 -1 3 -872485177 -1879904450 654163833 1508509073 116699063
            -1347141650 -957616146 1251962647</internalNodes>
          <leafValues>
            -3.5045710206031799e-001 4.3572258949279785e-001</leafValues></_>
        <_>
          <internalNodes>
            0 -1 174 2013419729 -686816123 -1794440991 -1682112449
            -472188517 -209092471 -771032349 -1647309575</internalNodes>
          <leafValues>
            -3.9214727282524109e-001 3.9231434464454651e-001</leafValues></_>
        <_>
          <internalNodes>
            0 -1 221 -466691028 1795388240 1124139094 -394117119
            193060932 441057280 -358423161 -1008529853</internalNodes>
          <leafValues>
            -4.2839425802230835e-001 3.6574870347976685e-001</leafValues></_>
        <_>
          <internalNodes>
            0 -1 48 -537193218 1065254840 -1082131014 2133884729
            -9098411 -1216970889 -277447331 -149455565</internalNodes>
          <leafValues>
            -3.8856256008148193e-001 4.3313977122306824e-001</leafValues></_>
        <_>
          <internalNodes>
            0 -1 17 -71465499 1844227066 -1342828682 1571692460
            1610469116 1828618238 -2047488533 -999045190</internalNodes>
          <leafValues>
            -3.4252074360847473e-001 4.8993274569511414e-001</leafValues></_>
        <_>
          <internalNodes>
            0 -1 7 334663594 1396834562 1091649626 -1176829582 807471114
            419954771 136374441 1736821327</internalNodes>
          <leafValues>
            -5.1085239648818970e-001 3.6134615540504456e-001</leafValues></_>
        <_>
          <internalNodes>
            0 -1 62 -1213008989 -475040083 -268471646 -37830941
            -578826788 1844281204 -52461578 -473368982</internalNodes>
          <leafValues>
            -3.3177655935287476e-001 5.2265644073486328e-001</leafValues></_></weakClassifiers></_>
    <!-- stage 7 -->
    <_>
      <maxWeakCount>12</maxWeakCount>
      <stageThreshold>-6.3215959072113037e-001</stageThreshold>
      <weakClassifiers>
        <_>
          <internalNodes>
            0 -1 168 195834488 1542280389 50645009 332894443 1478500584
            -175507293 2142079741 1037572800</internalNodes>
          <leafValues>
            -5.9443342685699463e-001 2.6409119367599487e-001</leafValues></_>
        <_>
          <internalNodes>
            0 -1 23 1619983294 -976238333 -1056882615 -2094525638
            -1568032392 -1408005778 -207631717 -547382238</internalNodes>
          <leafValues>
            -3.7887546420097351e-001 3.5099160671234131e-001</leafValues></_>
        <_>
          <internalNodes>
            0 -1 172 -538699043 -132906759 -2003368475 -573292065
            -532496210 -876066720 -1325094451 -1098901216</internalNodes>
          <leafValues>
            -3.7678286433219910e-001 3.5862258076667786e-001</leafValues></_>
        <_>
          <internalNodes>
            0 -1 236 -268697609 2138537517 -16859139 1287651012
            -1879126054 -588427289 754902344 -870327969</internalNodes>
          <leafValues>
            -2.1774220466613770e-001 6.3543158769607544e-001</leafValues></_>
        <_>
          <internalNodes>
            0 -1 27 -862007245 -322520280 1379927066 -352546558
            -623072791 -1542512639 -2009964368 -825039675</internalNodes>
          <leafValues>
            -4.0167826414108276e-001 3.8210871815681458e-001</leafValues></_>
        <_>
          <internalNodes>
            0 -1 95 -662642300 2023063824 1159320942 -1782214160
            -2003281906 807699657 2089654952 4235404</internalNodes>
          <leafValues>
            -6.6282361745834351e-001 2.1864953637123108e-001</leafValues></_>
        <_>
          <internalNodes>
            0 -1 128 1519211264 536876250 67208996 -1659927661
            -1023302784 -394166119 -1476296664 139252105</internalNodes>
          <leafValues>
            -5.5763614177703857e-001 2.7330464124679565e-001</leafValues></_>
        <_>
          <internalNodes>
            0 -1 225 -1354919309 -1492406064 -889106426 -1163997118
            711965665 -1383726941 117510303 -1981861380</internalNodes>
          <leafValues>
            -4.1650542616844177e-001 3.4985288977622986e-001</leafValues></_>
        <_>
          <internalNodes>
            0 -1 239 -1397265197 1643134783 -302006474 -47190282
            528400266 14680039 -2013965259 -1645480676</internalNodes>
          <leafValues>
            -3.2942008972167969e-001 4.6040728688240051e-001</leafValues></_>
        <_>
          <internalNodes>
            0 -1 104 1355806204 -1776033723 -2147384483 -334998653
            -234192306 428713608 -1910333204 904365587</internalNodes>
          <leafValues>
            -4.2850357294082642e-001 3.8580575585365295e-001</leafValues></_>
        <_>
          <internalNodes>
            0 -1 124 -1899212363 -98291559 1158273426 533944095
            -1366178807 -629145464 -184422486 -1929566000</internalNodes>
          <leafValues>
            -4.1611868143081665e-001 3.9780303835868835e-001</leafValues></_>
        <_>
          <internalNodes>
            0 -1 144 12866904 1526481305 22220828 -1311628030 1386170642
            -879492960 1082751453 1059850622</internalNodes>
          <leafValues>
            -5.7947164773941040e-001 2.8018367290496826e-001</leafValues></_></weakClassifiers></_>
    <!-- stage 8 -->
    <_>
      <maxWeakCount>15</maxWeakCount>
      <stageThreshold>-7.0798069238662720e-001</stageThreshold>
      <weakClassifiers>
        <_>
          <internalNodes>
            0 -1 209 -36184560 -212083371 -71633807 -50528268 -143131124
            1022852948 -1254162736 -195176449</internalNodes>
          <leafValues>
            -3.4024897217750549e-001 3.9892664551734924e-001</leafValues></_>
        <_>
          <internalNodes>
            0 -1 73 -3777349 1878794213 -1082184007 2126216953 -102799
            -8423557 -116745 -2916494</internalNodes>
          <leafValues>
            -3.3401852846145630e-001 3.9511415362358093e-001</leafValues></_>
        <_>
          <internalNodes>
            0 -1 191 -36449016 -1241992451 -1206826915 -241643492
            -2045804376 940283912 -733334656 -1470366683</internalNodes>
          <leafValues>
            -4.0915656089782715e-001 3.3420136570930481e-001</leafValues></_>
        <_>
          <internalNodes>
            0 -1 19 -301275692 1934939458 34081025 1317572630
            -2138661935 -905641919 805322975 -801945421</internalNodes>
          <leafValues>
            -4.0793177485466003e-001 3.3355385065078735e-001</leafValues></_>
        <_>
          <internalNodes>
            0 -1 178 -703662217 184705821 -2013052669 1426559111
            -1053945460 -847009727 704675867 677956277</internalNodes>
          <leafValues>
            -3.7066343426704407e-001 3.8344165682792664e-001</leafValues></_>
        <_>
          <internalNodes>
            0 -1 171 366940596 613519760 -520076900 214631696 1619192028
            252682368 277061817 143384817</internalNodes>
          <leafValues>
            -6.1659598350524902e-001 2.2362296283245087e-001</leafValues></_>
        <_>
          <internalNodes>
            0 -1 14 -1031920784 -456612252 1157759235 1813151761
            1631851162 189828232 -511535544 1092502883</internalNodes>
          <leafValues>
            -5.5002129077911377e-001 2.6084434986114502e-001</leafValues></_>
        <_>
          <internalNodes>
            0 -1 193 -1725176480 -561880300 1543734653 1730966096
            -1279587419 -1238312703 812620392 -1599519620</internalNodes>
          <leafValues>
            -5.0140225887298584e-001 2.7615442872047424e-001</leafValues></_>
        <_>
          <internalNodes>
            0 -1 26 -277618650 -1535098854 -2080160738 -364297853
            1127826578 59779072 -1054569838 587535240</internalNodes>
          <leafValues>
            -5.7030045986175537e-001 2.8345382213592529e-001</leafValues></_>
        <_>
          <internalNodes>
            0 -1 156 -984350372 -600420016 -1805708197 -1608548202
            -569142976 -1686044023 -209111653 -1478079723</internalNodes>
          <leafValues>
            -3.9731988310813904e-001 3.9279225468635559e-001</leafValues></_>
        <_>
          <internalNodes>
            0 -1 134 -201001880 1442906512 100659 -585416147 729925793
            -1156894592 -1935550198 338234890</internalNodes>
          <leafValues>
            -4.1343191266059875e-001 3.7975636124610901e-001</leafValues></_>
        <_>
          <internalNodes>
            0 -1 60 -759957234 1437868 8505360 -186371248 764407
            813793328 1086890496 1135235319</internalNodes>
          <leafValues>
            -5.1353490352630615e-001 3.0002683401107788e-001</leafValues></_>
        <_>
          <internalNodes>
            0 -1 149 -2005923467 -640805031 -2130181119 -116029353
            -1869846645 302663200 -952986751 -2105131000</internalNodes>
          <leafValues>
            -4.6226242184638977e-001 3.6201992630958557e-001</leafValues></_>
        <_>
          <internalNodes>
            0 -1 234 -1446016250 -1835299565 -1878802346 -1845305216
            -360236271 1376485505 104956388 -198973808</internalNodes>
          <leafValues>
            -4.6341440081596375e-001 3.6109486222267151e-001</leafValues></_>
        <_>
          <internalNodes>
            0 -1 108 734009892 1804747328 1107312851 -694038496
            -217044851 -2002679789 -751298132 -1361041148</internalNodes>
          <leafValues>
            -5.9472906589508057e-001 2.8754630684852600e-001</leafValues></_></weakClassifiers></_>
    <!-- stage 9 -->
    <_>
      <maxWeakCount>14</maxWeakCount>
      <stageThreshold>-7.5139749050140381e-001</stageThreshold>
      <weakClassifiers>
        <_>
          <internalNodes>
            0 -1 12 -196673606 -858595852 -1090846721 -202317958
            -16976385 -50659593 -57553029 -936903341</internalNodes>
          <leafValues>
            -2.9379054903984070e-001 4.3369889259338379e-001</leafValues></_>
        <_>
          <internalNodes>
            0 -1 182 891052372 -644511712 -805217983 1067552385
            1237867507 -125296251 -1685572913 -1400109536</internalNodes>
          <leafValues>
            -4.7038620710372925e-001 2.9071280360221863e-001</leafValues></_>
        <_>
          <internalNodes>
            0 -1 46 -671751778 -574692870 151064945 -441958389
            -670482121 -863756150 -664583773 2001956386</internalNodes>
          <leafValues>
            -3.9979267120361328e-001 3.3996909856796265e-001</leafValues></_>
        <_>
          <internalNodes>
            0 -1 20 -470900020 -1486839471 -922680989 -448790016
            1753755717 -2122306944 2013340083 -944021145</internalNodes>
          <leafValues>
            -4.1003710031509399e-001 3.6096745729446411e-001</leafValues></_>
        <_>
          <internalNodes>
            0 -1 177 -387428239 1904428071 -939486123 -1796008755
            -1966429556 -964066385 -1843868977 -1415562991</internalNodes>
          <leafValues>
            -4.2117151618003845e-001 3.2539802789688110e-001</leafValues></_>
        <_>
          <internalNodes>
            0 -1 132 34402132 454168671 -1727921971 -1827962814
            1262573597 -522411989 -1142404690 -1437525696</internalNodes>
          <leafValues>
            -4.4243335723876953e-001 3.2400923967361450e-001</leafValues></_>
        <_>
          <internalNodes>
            0 -1 33 1642063479 -851656586 -2139094693 1887707304
            1359024345 1007026635 -461208933 1380149571</internalNodes>
          <leafValues>
            -3.9540466666221619e-001 3.7497442960739136e-001</leafValues></_>
        <_>
          <internalNodes>
            0 -1 66 -139990366 -402853915 2130657152 396357575
            1559936461 -1922891777 1937192880 -226754753</internalNodes>
          <leafValues>
            -3.2635140419006348e-001 4.6827229857444763e-001</leafValues></_>
        <_>
          <internalNodes>
            0 -1 153 -549695495 -1174806944 -20988784 -1824819589
            -858168 -1093469338 904901944 -1734628092</internalNodes>
          <leafValues>
            -3.3364963531494141e-001 4.7158432006835938e-001</leafValues></_>
        <_>
          <internalNodes>
            0 -1 161 -803226744 841797763 -1320615646 424820887
            -1056923640 231563265 975637002 452971</internalNodes>
          <leafValues>
            -5.7985317707061768e-001 2.7051764726638794e-001</leafValues></_>
        <_>
          <internalNodes>
            0 -1 87 -270258343 1472118765 2147373047 -570659296
            805142469 -2013790211 771063291 -476883961</internalNodes>
          <leafValues>
            -3.7390324473381042e-001 4.5469549298286438e-001</leafValues></_>
        <_>
          <internalNodes>
            0 -1 119 606879038 1510150551 336708702 -1655960588
            -2104589848 1770357166 -318695003 154152448</internalNodes>
          <leafValues>
            -6.0434073209762573e-001 2.8291082382202148e-001</leafValues></_>
        <_>
          <internalNodes>
            0 -1 68 -466304862 -96729070 -804449957 -1017872382
            1644380558 -1038467061 -125640683 1824609794</internalNodes>
          <leafValues>
            -5.9645688533782959e-001 2.3122768104076385e-001</leafValues></_>
        <_>
          <internalNodes>
            0 -1 75 -1068123404 -2025847532 -1047444223 -1533274102
            1762664571 981584002 160137454 1764189522</internalNodes>
          <leafValues>
            -4.7143349051475525e-001 3.6023408174514771e-001</leafValues></_></weakClassifiers></_>
    <!-- stage 10 -->
    <_>
      <maxWeakCount>14</maxWeakCount>
      <stageThreshold>-9.4919234514236450e-001</stageThreshold>
      <weakClassifiers>
        <_>
          <internalNodes>
            0 -1 217 -1851529775 22335693 1098996380 -2051321067
            -1844980773 -2141472350 700697037 205247931</internalNodes>
          <leafValues>
            -3.7772396206855774e-001 3.4235668182373047e-001</leafValues></_>
        <_>
          <internalNodes>
            0 -1 235 -1074927702 -1074856087 1988079147 1911865270
            -1291879360 -851443866 -957055596 -522197506</internalNodes>
          <leafValues>
            -3.1016758084297180e-001 3.9377906918525696e-001</leafValues></_>
        <_>
          <internalNodes>
            0 -1 142 14950901 1899254725 -756506343 299787411
            -1303885799 -964083543 -137794917 -1437842432</internalNodes>
          <leafValues>
            -5.0001353025436401e-001 2.6479655504226685e-001</leafValues></_>
        <_>
          <internalNodes>
            0 -1 78 -1276907645 254524910 -2098289002 -773607957
            1337847754 91291445 1946152080 -1023934537</internalNodes>
          <leafValues>
            -2.6253095269203186e-001 4.9912276864051819e-001</leafValues></_>
        <_>
          <internalNodes>
            0 -1 194 -2002532754 222463938 46859093 -1248221947
            135193254 -1197400017 -2013039879 82830520</internalNodes>
          <leafValues>
            -5.0009834766387939e-001 2.5452968478202820e-001</leafValues></_>
        <_>
          <internalNodes>
            0 -1 207 -567296719 -147210848 1056603808 979171967
            657102648 1031690013 2121399850 1983635039</internalNodes>
          <leafValues>
            -3.6379212141036987e-001 3.8225245475769043e-001</leafValues></_>
        <_>
          <internalNodes>
            0 -1 103 1231036413 -2117561611 1896288272 478085132
            939702509 -1954410488 -1436507494 -1651947504</internalNodes>
          <leafValues>
            -3.6244025826454163e-001 3.8500842452049255e-001</leafValues></_>
        <_>
          <internalNodes>
            0 -1 70 -163131560 341671940 -2143272506 -1979682412
            134234460 -645313792 -1012561492 2061394798</internalNodes>
          <leafValues>
            -4.8647436499595642e-001 2.8863599896430969e-001</leafValues></_>
        <_>
          <internalNodes>
            0 -1 189 -568865776 -1972289215 294228053 215027859
            -394151748 -1332101086 -1200775040 -402459543</internalNodes>
          <leafValues>
            -3.8757371902465820e-001 3.7473583221435547e-001</leafValues></_>
        <_>
          <internalNodes>
            0 -1 237 -268702045 -1939095686 -1480724484 -945588694
            -403071583 1572208629 -1393635928 -186791953</internalNodes>
          <leafValues>
            -3.1347048282623291e-001 4.8408067226409912e-001</leafValues></_>
        <_>
          <internalNodes>
            0 -1 140 477372464 -520028028 -2113846881 811682117
            185174311 -914323285 -2112096155 -102156192</internalNodes>
          <leafValues>
            -4.1473263502120972e-001 3.5638248920440674e-001</leafValues></_>
        <_>
          <internalNodes>
            0 -1 53 -1554309515 1191904283 1074943703 576677923
            -1599456746 1749090560 1078547505 -485015037</internalNodes>
          <leafValues>
            -4.7568663954734802e-001 3.2709208130836487e-001</leafValues></_>
        <_>
          <internalNodes>
            0 -1 210 -541872511 535740067 -1073811741 1622917031
            -562188355 -1636499586 1827624442 -297863515</internalNodes>
          <leafValues>
            -3.7234973907470703e-001 4.6467778086662292e-001</leafValues></_>
        <_>
          <internalNodes>
            0 -1 197 -1842737708 -1589247722 -980739949 1050447885
            -150988354 -1962387455 958941936 -1075956568</internalNodes>
          <leafValues>
            -4.2382413148880005e-001 3.7783607840538025e-001</leafValues></_></weakClassifiers></_>
    <!-- stage 11 -->
    <_>
      <maxWeakCount>15</maxWeakCount>
      <stageThreshold>-6.8342858552932739e-001</stageThreshold>
      <weakClassifiers>
        <_>
          <internalNodes>
            0 -1 72 591723372 -1017733052 865419730 1029541568 952129780
            -1382891364 -527406905 1953572372</internalNodes>
          <leafValues>
            -4.4945567846298218e-001 2.8283530473709106e-001</leafValues></_>
        <_>
          <internalNodes>
            0 -1 51 -194027053 1947390223 -2113093564 1381141403
            -1442684414 1344311361 831480373 -227390605</internalNodes>
          <leafValues>
            -3.7706533074378967e-001 3.2251244783401489e-001</leafValues></_>
        <_>
          <internalNodes>
            0 -1 34 -1363415937 -486965476 -1074008321 851093290
            -805841680 -42567835 -5013524 -165413294</internalNodes>
          <leafValues>
            -3.2385972142219543e-001 3.8799113035202026e-001</leafValues></_>
        <_>
          <internalNodes>
            0 -1 190 -37749709 -617824274 1056406648 -276168990
            -268603538 -1619525635 -1896374656 -1066275273</internalNodes>
          <leafValues>
            -3.1205961108207703e-001 3.9180034399032593e-001</leafValues></_>
        <_>
          <internalNodes>
            0 -1 151 207360948 -302505232 1212153948 2135572740
            -1455365478 -1142275697 -1190982907 798754896</internalNodes>
          <leafValues>
            -5.7509863376617432e-001 2.0751412212848663e-001</leafValues></_>
        <_>
          <internalNodes>
            0 -1 91 -758660166 -1249651961 671187138 -1865576261
            1648734275 1553563650 1124802688 -418930238</internalNodes>
          <leafValues>
            -3.6378383636474609e-001 3.8315227627754211e-001</leafValues></_>
        <_>
          <internalNodes>
            0 -1 57 -1035799798 -2086345422 -1591536171 -1925152758
            704678584 193004460 -2004089411 8847927</internalNodes>
          <leafValues>
            -4.9571669101715088e-001 2.9031869769096375e-001</leafValues></_>
        <_>
          <internalNodes>
            0 -1 233 -956309216 -779958252 -2079260592 1145049872
            -1071931368 -897578862 -710850408 1074388118</internalNodes>
          <leafValues>
            -4.9982532858848572e-001 2.6388517022132874e-001</leafValues></_>
        <_>
          <internalNodes>
            0 -1 135 403275940 1057169496 1346471188 -1705324527
            1006669906 975263924 -603903762 682997764</internalNodes>
          <leafValues>
            -5.2642822265625000e-001 2.8863784670829773e-001</leafValues></_>
        <_>
          <internalNodes>
            0 -1 11 -497842270 -938252776 1078009987 1708516263
            -1996287471 -1987444464 1620246664 1091266622</internalNodes>
          <leafValues>
            -4.0864962339401245e-001 3.6752164363861084e-001</leafValues></_>
        <_>
          <internalNodes>
            0 -1 188 1499448496 -670937472 -1593799803 -1164582396
            -1677688184 2046992512 -1995501438 1214825796</internalNodes>
          <leafValues>
            -5.5336749553680420e-001 2.4979917705059052e-001</leafValues></_>
        <_>
          <internalNodes>
            0 -1 65 1843167238 -1272855232 -988511434 -910953725
            -652190135 840116305 -1291507256 2099726678</internalNodes>
          <leafValues>
            -5.1853632926940918e-001 2.8499376773834229e-001</leafValues></_>
        <_>
          <internalNodes>
            0 -1 94 -1094054688 -1794178860 1343015118 -132998879
            587761812 700692641 1409421721 1610613764</internalNodes>
          <leafValues>
            -6.5126568078994751e-001 2.3384094238281250e-001</leafValues></_>
        <_>
          <internalNodes>
            0 -1 121 -1269241260 -771182189 34685983 1561277101
            -1336827527 -1744672619 1257461900 -1431481047</internalNodes>
          <leafValues>
            -3.4865474700927734e-001 4.3027868866920471e-001</leafValues></_>
        <_>
          <internalNodes>
            0 -1 18 -46610709 48635890 -1149592905 -335573388 242732699
            -288333825 -268491691 -1924673622</internalNodes>
          <leafValues>
            -3.7076285481452942e-001 4.2378082871437073e-001</leafValues></_></weakClassifiers></_>
    <!-- stage 12 -->
    <_>
      <maxWeakCount>14</maxWeakCount>
      <stageThreshold>-7.4172383546829224e-001</stageThreshold>
      <weakClassifiers>
        <_>
          <internalNodes>
            0 -1 141 280466601 990197463 1073753766 -2048130750
            881862937 677651158 13904384 140111129</internalNodes>
          <leafValues>
            -4.4629350304603577e-001 2.9064038395881653e-001</leafValues></_>
        <_>
          <internalNodes>
            0 -1 244 -1478503745 47300995 1820987676 -1944725202
            579056283 -1971174272 -2111155987 -838865749</internalNodes>
          <leafValues>
            -3.4643959999084473e-001 3.7206152081489563e-001</leafValues></_>
        <_>
          <internalNodes>
            0 -1 137 -55304908 -779755190 286722439 -1677655915
            -301968359 -634682359 -636894803 -381146368</internalNodes>
          <leafValues>
            -3.9576050639152527e-001 3.1677216291427612e-001</leafValues></_>
        <_>
          <internalNodes>
            0 -1 90 -259273760 606130191 -2080370544 1657684005
            -1211489527 1208713344 54534535 -797972345</internalNodes>
          <leafValues>
            -3.4823074936866760e-001 3.6758229136466980e-001</leafValues></_>
        <_>
          <internalNodes>
            0 -1 202 -498242799 1976076451 92491092 -838876990
            1514377749 -477199720 -240737136 -589179235</internalNodes>
          <leafValues>
            -3.5245305299758911e-001 3.6292898654937744e-001</leafValues></_>
        <_>
          <internalNodes>
            0 -1 102 1967354964 -1245494135 428177797 -1375596483
            688400123 -838723423 1779173880 1864383481</internalNodes>
          <leafValues>
            -4.5514962077140808e-001 2.9815900325775146e-001</leafValues></_>
        <_>
          <internalNodes>
            0 -1 213 -652740832 370721928 269041780 -786923376
            -1979602296 -116747966 -936472495 1617680579</internalNodes>
          <leafValues>
            -4.0247681736946106e-001 3.3119142055511475e-001</leafValues></_>
        <_>
          <internalNodes>
            0 -1 200 -671628153 2135567843 -1359016202 -231690624
            -2030318165 2105245055 2130175730 -237549793</internalNodes>
          <leafValues>
            -3.1617239117622375e-001 4.4801053404808044e-001</leafValues></_>
        <_>
          <internalNodes>
            0 -1 129 134683984 -2133327610 1795242385 -1501294319
            987801501 -586529272 -1985347159 960499857</internalNodes>
          <leafValues>
            -5.0818198919296265e-001 3.1994298100471497e-001</leafValues></_>
        <_>
          <internalNodes>
            0 -1 179 -16660135 -1810825137 -1056632423 855975938
            -1559719903 -1156611959 1484839084 1888154627</internalNodes>
          <leafValues>
            -4.0805265307426453e-001 3.4686785936355591e-001</leafValues></_>
        <_>
          <internalNodes>
            0 -1 1 376234553 -1761320574 -671080397 -1403027344
            -494819173 32609794 146508248 1079127298</internalNodes>
          <leafValues>
            -5.0238680839538574e-001 3.0136510729789734e-001</leafValues></_>
        <_>
          <internalNodes>
            0 -1 6 329753250 21037863 -1593245680 218317312 -1052065615
            -658341888 -1590615934 206761448</internalNodes>
          <leafValues>
            -4.5398974418640137e-001 3.4648245573043823e-001</leafValues></_>
        <_>
          <internalNodes>
            0 -1 45 -200391364 1119912334 1342442162 -1336356154
            537027154 1208483840 -1329497564 -483201018</internalNodes>
          <leafValues>
            -4.7116005420684814e-001 3.0526679754257202e-001</leafValues></_>
        <_>
          <internalNodes>
            0 -1 196 815948357 -1505521338 1082409028 639242586
            -402649040 1048805385 319476875 208524337</internalNodes>
          <leafValues>
            -6.3283336162567139e-001 2.0912565290927887e-001</leafValues></_></weakClassifiers></_>
    <!-- stage 13 -->
    <_>
      <maxWeakCount>14</maxWeakCount>
      <stageThreshold>-6.4686471223831177e-001</stageThreshold>
      <weakClassifiers>
        <_>
          <internalNodes>
            0 -1 163 -211314656 -1339535093 -2145580494 -610270933
            168923421 -1431756652 -1559391342 -1128519773</internalNodes>
          <leafValues>
            -3.8014528155326843e-001 3.4394904971122742e-001</leafValues></_>
        <_>
          <internalNodes>
            0 -1 58 -338593 -1018666920 -2141584993 -858782190
            -502765151 -383434617 -1590865775 1658421105</internalNodes>
          <leafValues>
            -3.7054967880249023e-001 3.1662839651107788e-001</leafValues></_>
        <_>
          <internalNodes>
            0 -1 49 -774210171 1565048875 -451391469 2067984834
            -1744437177 -645723582 -1332348123 907042640</internalNodes>
          <leafValues>
            -5.7125753164291382e-001 2.1326322853565216e-001</leafValues></_>
        <_>
          <internalNodes>
            0 -1 32 -933829382 -999141094 -1073213265 -532147702
            1175131385 -116162510 -75361744 -754728701</internalNodes>
          <leafValues>
            -4.3173885345458984e-001 3.3107089996337891e-001</leafValues></_>
        <_>
          <internalNodes>
            0 -1 22 -1060975031 -985212920 432801428 -1190952702
            -437809996 1175103507 -117254525 -1030805725</internalNodes>
          <leafValues>
            -3.3854109048843384e-001 3.6283618211746216e-001</leafValues></_>
        <_>
          <internalNodes>
            0 -1 85 307836156 -930836430 -1073669786 -1861811902
            -1060624311 -223310840 -2077095928 508971798</internalNodes>
          <leafValues>
            -5.2840656042098999e-001 2.3709894716739655e-001</leafValues></_>
        <_>
          <internalNodes>
            0 -1 214 -26507776 1879076888 -637367978 -1790307776
            -1811916727 42074243 -1022877584 -305409825</internalNodes>
          <leafValues>
            -3.7070223689079285e-001 3.6972150206565857e-001</leafValues></_>
        <_>
          <internalNodes>
            0 -1 42 -4263957 1332719543 -293684096 1541467946 -698882188
            1826913900 -177056633 -453771833</internalNodes>
          <leafValues>
            -2.9937937855720520e-001 4.7971490025520325e-001</leafValues></_>
        <_>
          <internalNodes>
            0 -1 198 -1834183280 -1744437084 -754898729 -136302080
            1079584929 -1744699197 -1874575205 -1930945244</internalNodes>
          <leafValues>
            -4.9313810467720032e-001 2.8300487995147705e-001</leafValues></_>
        <_>
          <internalNodes>
            0 -1 222 -2634259 -210534662 -1628295822 -689116436
            -403781729 -1388863627 1471421775 -366813915</internalNodes>
          <leafValues>
            -2.4474756419658661e-001 5.9689635038375854e-001</leafValues></_>
        <_>
          <internalNodes>
            0 -1 165 905557776 156098881 1425823 -1337966417 -796138972
            -1305964375 1746827468 -1191583578</internalNodes>
          <leafValues>
            -4.7441193461418152e-001 3.1828105449676514e-001</leafValues></_>
        <_>
          <internalNodes>
            0 -1 74 33587500 452297812 1092093405 943026373 1753352377
            725614779 675822243 1646735856</internalNodes>
          <leafValues>
            -5.8161967992782593e-001 2.6197573542594910e-001</leafValues></_>
        <_>
          <internalNodes>
            0 -1 219 -762537778 -1141917973 -1409845552 -16777527
            -553683648 1315372668 2121766254 -143199380</internalNodes>
          <leafValues>
            -3.4208938479423523e-001 4.3437689542770386e-001</leafValues></_>
        <_>
          <internalNodes>
            0 -1 183 943879409 -1814571756 -2147287032 2043910926
            -66543523 -1442764119 411113711 -857069376</internalNodes>
          <leafValues>
            -4.2176610231399536e-001 3.9131495356559753e-001</leafValues></_></weakClassifiers></_>
    <!-- stage 14 -->
    <_>
      <maxWeakCount>15</maxWeakCount>
      <stageThreshold>-1.0865964889526367e+000</stageThreshold>
      <weakClassifiers>
        <_>
          <internalNodes>
            0 -1 44 -1073553346 -1231996589 1074790552 641876300
            839909760 -615317448 1489418291 -679345662</internalNodes>
          <leafValues>
            -4.1991341114044189e-001 2.9445645213127136e-001</leafValues></_>
        <_>
          <internalNodes>
            0 -1 55 -600731 -134365206 -16892309 1610071986 1073119084
            -1619558401 -1083154573 -1690996906</internalNodes>
          <leafValues>
            -3.2521212100982666e-001 3.5581645369529724e-001</leafValues></_>
        <_>
          <internalNodes>
            0 -1 115 607126612 19579791 -2146889322 -1416784307
            1145535120 -1551105914 -1891104256 139993360</internalNodes>
          <leafValues>
            -6.7772930860519409e-001 1.8053741753101349e-001</leafValues></_>
        <_>
          <internalNodes>
            0 -1 158 -836023727 -620522590 286313567 -1877393146
            1753228312 -14876660 -1736332360 -534085590</internalNodes>
          <leafValues>
            -3.5071763396263123e-001 3.6038395762443542e-001</leafValues></_>
        <_>
          <internalNodes>
            0 -1 30 -50934297 -2110867549 -16842762 -1225954522
            -1663269164 -665911690 1979555542 -588064889</internalNodes>
          <leafValues>
            -3.0635172128677368e-001 4.1128939390182495e-001</leafValues></_>
        <_>
          <internalNodes>
            0 -1 185 -636436284 402742981 805393044 -1319399151
            -1807443688 1938296856 -1233114472 841336138</internalNodes>
          <leafValues>
            -4.4325712323188782e-001 2.9622101783752441e-001</leafValues></_>
        <_>
          <internalNodes>
            0 -1 229 -789843440 -20729855 1078001728 -179125502
            -134041172 -2122317821 1140869772 -937371069</internalNodes>
          <leafValues>
            -4.0018388628959656e-001 3.2343050837516785e-001</leafValues></_>
        <_>
          <internalNodes>
            0 -1 238 -669720806 -653979648 -1056747324 -1604372724
            -792252383 18104385 537054336 -1852842753</internalNodes>
          <leafValues>
            -3.6179774999618530e-001 3.6223039031028748e-001</leafValues></_>
        <_>
          <internalNodes>
            0 -1 101 2063358805 -739033229 1056877307 -1636393224
            -1619206971 -1495793665 -1610707083 771042847</internalNodes>
          <leafValues>
            -3.0266308784484863e-001 4.3335726857185364e-001</leafValues></_>
        <_>
          <internalNodes>
            0 -1 110 1573393745 -1661801211 -293601281 -1331218
            -1778434172 -50364564 -294162867 -1084909787</internalNodes>
          <leafValues>
            -3.1661784648895264e-001 4.3686121702194214e-001</leafValues></_>
        <_>
          <internalNodes>
            0 -1 67 1186646231 453116560 -1996466793 -1870527199
            -2094384422 176586817 395675 481031170</internalNodes>
          <leafValues>
            -3.7081405520439148e-001 3.7737315893173218e-001</leafValues></_>
        <_>
          <internalNodes>
            0 -1 105 -121388146 -2086190717 -620487964 -1996216314
            -1451818221 -847237118 -225911536 -2040444011</internalNodes>
          <leafValues>
            -3.9868360757827759e-001 3.7088534235954285e-001</leafValues></_>
        <_>
          <internalNodes>
            0 -1 241 -37756050 -1493815447 -1073758379 -838861060
            -805438058 -1502085257 1607759621 -456135265</internalNodes>
          <leafValues>
            -3.5740703344345093e-001 4.4136217236518860e-001</leafValues></_>
        <_>
          <internalNodes>
            0 -1 114 -119771947 -1167245579 2113339359 434208697
            -51491075 -1661042842 -98563 475701308</internalNodes>
          <leafValues>
            -3.3929628133773804e-001 4.1391941905021667e-001</leafValues></_>
        <_>
          <internalNodes>
            0 -1 0 -697857133 -353456478 1040141940 -167874912
            -1115686971 1173860219 897043896 -624951758</internalNodes>
          <leafValues>
            -2.8612422943115234e-001 5.0406748056411743e-001</leafValues></_></weakClassifiers></_>
    <!-- stage 15 -->
    <_>
      <maxWeakCount>16</maxWeakCount>
      <stageThreshold>-6.9536656141281128e-001</stageThreshold>
      <weakClassifiers>
        <_>
          <internalNodes>
            0 -1 61 571480832 101646677 -2069724926 604176923 1073850537
            127008904 -1172240426 1828811161</internalNodes>
          <leafValues>
            -4.9728751182556152e-001 2.5703072547912598e-001</leafValues></_>
        <_>
          <internalNodes>
            0 -1 206 -763406560 -610204926 33977 1674051586 1212757004
            -1203025919 -897275325 -668613890</internalNodes>
          <leafValues>
            -3.6522048711776733e-001 2.9913243651390076e-001</leafValues></_>
        <_>
          <internalNodes>
            0 -1 220 -682624214 1361363227 273158322 545845512
            1816158281 2059534472 -469450303 -261690801</internalNodes>
          <leafValues>
            -3.3690717816352844e-001 3.2478839159011841e-001</leafValues></_>
        <_>
          <internalNodes>
            0 -1 113 503615760 1409548306 1073905666 -960363894
            1090715664 1250394130 -1859401520 -570414040</internalNodes>
          <leafValues>
            -6.8990957736968994e-001 1.8708953261375427e-001</leafValues></_>
        <_>
          <internalNodes>
            0 -1 87 304529140 -1749635586 -1342813201 -2013434204
            -1881278553 -2013790209 -1342861875 -1965603066</internalNodes>
          <leafValues>
            -3.2692298293113708e-001 3.9214748144149780e-001</leafValues></_>
        <_>
          <internalNodes>
            0 -1 164 -1298644143 -2119167972 940646401 759251526
            -98383351 -58163200 -1306369389 -1484119935</internalNodes>
          <leafValues>
            -4.1638070344924927e-001 2.8630360960960388e-001</leafValues></_>
        <_>
          <internalNodes>
            0 -1 160 -926411616 475103530 1124324550 2139558227
            -1848451004 1116803241 -364350700 335657729</internalNodes>
          <leafValues>
            -5.0291150808334351e-001 2.8495568037033081e-001</leafValues></_>
        <_>
          <internalNodes>
            0 -1 81 -11906925 -320946369 -302231951 1072794745
            -814196811 -285597897 -134337705 -953028817</internalNodes>
          <leafValues>
            -3.1305107474327087e-001 4.4133436679840088e-001</leafValues></_>
        <_>
          <internalNodes>
            0 -1 21 -1386765080 -2028273359 -2130411261 -1622859629
            -922515114 1393393826 -1073276337 1174468677</internalNodes>
          <leafValues>
            -4.5063447952270508e-001 2.8702181577682495e-001</leafValues></_>
        <_>
          <internalNodes>
            0 -1 80 2130441330 -64966915 -268497374 885942240 742202878
            67010557 1073094643 765943789</internalNodes>
          <leafValues>
            -3.6192992329597473e-001 3.7601456046104431e-001</leafValues></_>
        <_>
          <internalNodes>
            0 -1 83 -536164010 506036741 4250 -1525534264 1343238296
            -1758910302 46820315 2079670784</internalNodes>
          <leafValues>
            -4.4843828678131104e-001 3.0134379863739014e-001</leafValues></_>
        <_>
          <internalNodes>
            0 -1 29 -460921398 -1056788136 -1857842859 -1278033920
            -267743030 1753686033 34299923 -1568947390</internalNodes>
          <leafValues>
            -3.9018994569778442e-001 3.5721051692962646e-001</leafValues></_>
        <_>
          <internalNodes>
            0 -1 37 -825154909 -1878851555 1360035996 1376936202
            1107337224 294357259 33759268 933450250</internalNodes>
          <leafValues>
            -4.1812700033187866e-001 3.4537842869758606e-001</leafValues></_>
        <_>
          <internalNodes>
            0 -1 185 -159296737 895828463 -1878687137 -1043253120
            -802585988 -1701838783 1619154094 -1543116468</internalNodes>
          <leafValues>
            -3.8712069392204285e-001 3.7365007400512695e-001</leafValues></_>
        <_>
          <internalNodes>
            0 -1 117 -321327756 804700093 1539291903 -2085912979
            1040031740 -184549377 -1628127299 -1188677275</internalNodes>
          <leafValues>
            -3.5464781522750854e-001 4.0452030301094055e-001</leafValues></_>
        <_>
          <internalNodes>
            0 -1 173 1832286269 -437223425 2113615593 -1665555153
            -1100521988 2079440764 -439106 -831636365</internalNodes>
          <leafValues>
            -3.1711685657501221e-001 4.6926000714302063e-001</leafValues></_></weakClassifiers></_>
    <!-- stage 16 -->
    <_>
      <maxWeakCount>15</maxWeakCount>
      <stageThreshold>-8.8956230878829956e-001</stageThreshold>
      <weakClassifiers>
        <_>
          <internalNodes>
            0 -1 243 -1115981573 -1460158533 -1090535687 -1494548737
            -1073946694 -2063597577 805252465 -858259977</internalNodes>
          <leafValues>
            -2.9556185007095337e-001 4.2130985856056213e-001</leafValues></_>
        <_>
          <internalNodes>
            0 -1 106 642055525 -1268859713 -1075171399 803993309
            536838005 -405143564 -180856 1858338222</internalNodes>
          <leafValues>
            -3.4105256199836731e-001 3.6746290326118469e-001</leafValues></_>
        <_>
          <internalNodes>
            0 -1 180 166731721 -1785755301 1157857757 709988498
            -1966936392 -880557951 407511176 -1142517087</internalNodes>
          <leafValues>
            -3.4992060065269470e-001 3.4747475385665894e-001</leafValues></_>
        <_>
          <internalNodes>
            0 -1 64 -1767921502 -1610478798 1209139216 658552449
            1505841606 67675142 1090590872 -876090438</internalNodes>
          <leafValues>
            -3.5238447785377502e-001 3.6343678832054138e-001</leafValues></_>
        <_>
          <internalNodes>
            0 -1 125 302020958 1174672275 -2146086832 1428292612
            675399820 -1450626039 838871805 744495945</internalNodes>
          <leafValues>
            -5.7315248250961304e-001 2.5468817353248596e-001</leafValues></_>
        <_>
          <internalNodes>
            0 -1 215 2040921956 -595788042 -1359245315 1979547644
            -1879054012 746452963 -320447312 -1980500713</internalNodes>
          <leafValues>
            -3.6763405799865723e-001 4.0843066573143005e-001</leafValues></_>
        <_>
          <internalNodes>
            0 -1 204 -563229025 737671724 1790585514 1781268454
            -84417302 -281184409 -1770117428 -8391477</internalNodes>
          <leafValues>
            -2.4948880076408386e-001 5.9195131063461304e-001</leafValues></_>
        <_>
          <internalNodes>
            0 -1 39 -1068247240 -1853734552 1358956352 -1999372152
            268959900 1612513490 -1795153782 -2131528673</internalNodes>
          <leafValues>
            -4.2721834778785706e-001 3.7218621373176575e-001</leafValues></_>
        <_>
          <internalNodes>
            0 -1 112 -2134364483 -1920446335 -2125737573 209798149
            -246590751 -796901231 -125089655 -1394464663</internalNodes>
          <leafValues>
            -4.6147298812866211e-001 3.4049424529075623e-001</leafValues></_>
        <_>
          <internalNodes>
            0 -1 157 -797961808 387235856 1902668 -148797640 33431
            -369016665 -2113531004 1069108484</internalNodes>
          <leafValues>
            -4.6754303574562073e-001 3.1453078985214233e-001</leafValues></_>
        <_>
          <internalNodes>
            0 -1 63 -30162334 -2126241492 1109240192 1208183872
            539022145 46301379 1301321744 1089385092</internalNodes>
          <leafValues>
            -5.9634590148925781e-001 2.5874131917953491e-001</leafValues></_>
        <_>
          <internalNodes>
            0 -1 122 -2146217712 -1274310390 336834901 -511705015
            939632680 -602926359 -1987474763 -1980431523</internalNodes>
          <leafValues>
            -3.9880219101905823e-001 4.0943512320518494e-001</leafValues></_>
        <_>
          <internalNodes>
            0 -1 93 -472358587 -1676771304 1765939223 -1705682911
            -1736007479 454688900 -2113730132 -635033502</internalNodes>
          <leafValues>
            -4.0341654419898987e-001 3.8617882132530212e-001</leafValues></_>
        <_>
          <internalNodes>
            0 -1 96 318853161 361890048 135336216 882442515 -1342078920
            1397227656 78327996 2678966</internalNodes>
          <leafValues>
            -4.9718022346496582e-001 3.3010601997375488e-001</leafValues></_>
        <_>
          <internalNodes>
            0 -1 35 -1740029220 104878171 -1073704431 1385767172
            -1606368691 -1853702136 -2004663128 1286816259</internalNodes>
          <leafValues>
            -4.3760287761688232e-001 3.6886203289031982e-001</leafValues></_></weakClassifiers></_>
    <!-- stage 17 -->
    <_>
      <maxWeakCount>17</maxWeakCount>
      <stageThreshold>-7.8547155857086182e-001</stageThreshold>
      <weakClassifiers>
        <_>
          <internalNodes>
            0 -1 169 46202613 -1862192256 1342178373 492079373
            -1878746956 -1472157600 25346777 1039403440</internalNodes>
          <leafValues>
            -3.9058172702789307e-001 2.9411765933036804e-001</leafValues></_>
        <_>
          <internalNodes>
            0 -1 224 -632874354 1468107265 1301817574 -1307383728
            37806408 1577141280 1118740587 -750586613</internalNodes>
          <leafValues>
            -3.1250402331352234e-001 3.5473886132240295e-001</leafValues></_>
        <_>
          <internalNodes>
            0 -1 226 -618554734 1359630617 -2146299758 462259238
            1372480652 -1012792793 -1471545171 1478547968</internalNodes>
          <leafValues>
            -3.6918169260025024e-001 2.9958131909370422e-001</leafValues></_>
        <_>
          <internalNodes>
            0 -1 88 -450665372 268501176 1147045 990511236 -2122209079
            -905934829 407896173 569180479</internalNodes>
          <leafValues>
            -4.3016386032104492e-001 2.9143500328063965e-001</leafValues></_>
        <_>
          <internalNodes>
            0 -1 181 -930770288 -552463788 303013984 -545128365
            -2145230081 184582275 -1734637553 1309393034</internalNodes>
          <leafValues>
            -3.8820955157279968e-001 2.9322969913482666e-001</leafValues></_>
        <_>
          <internalNodes>
            0 -1 176 591118929 1074790529 -1861661447 -1247379430
            1101041097 -374962165 -964148304 217628722</internalNodes>
          <leafValues>
            -3.9712345600128174e-001 3.1672412157058716e-001</leafValues></_>
        <_>
          <internalNodes>
            0 -1 43 -1836937266 -494730529 1091604797 -796782557
            35668110 403310594 -1568661062 -165515097</internalNodes>
          <leafValues>
            -3.9438170194625854e-001 3.4607037901878357e-001</leafValues></_>
        <_>
          <internalNodes>
            0 -1 9 -472907854 1258803616 419893576 -1295662704 -57667584
            32449065 197966530 -159058512</internalNodes>
          <leafValues>
            -3.9582195878028870e-001 3.3349609375000000e-001</leafValues></_>
        <_>
          <internalNodes>
            0 -1 127 1762143568 -1945484352 -2130672297 1650262024
            427855557 168493185 -720876995 407136709</internalNodes>
          <leafValues>
            -4.8058283329010010e-001 2.9731798171997070e-001</leafValues></_>
        <_>
          <internalNodes>
            0 -1 89 -1459750155 -1719702167 -270565664 2004168420
            -180967585 -1372162050 -855689854 -549222489</internalNodes>
          <leafValues>
            -2.6371830701828003e-001 5.2471202611923218e-001</leafValues></_>
        <_>
          <internalNodes>
            0 -1 230 -329254821 -93176036 2130669301 -52260872
            1286720524 -131213 1476382444 2006404220</internalNodes>
          <leafValues>
            -3.2513159513473511e-001 4.2400890588760376e-001</leafValues></_>
        <_>
          <internalNodes>
            0 -1 130 289026596 -347700922 -511176660 -1887561333
            2013337111 -1098833768 -955897719 -1253299452</internalNodes>
          <leafValues>
            -4.8046731948852539e-001 3.0314069986343384e-001</leafValues></_>
        <_>
          <internalNodes>
            0 -1 107 -142971855 -130138186 1073299199 -1076708865
            -536903683 -1082195971 -1786810370 -1348764235</internalNodes>
          <leafValues>
            -3.4253445267677307e-001 4.1729420423507690e-001</leafValues></_>
        <_>
          <internalNodes>
            0 -1 184 -1342160432 -1819211584 -917653924 620920845
            -1033837296 -2103965426 -1001733468 906144267</internalNodes>
          <leafValues>
            -4.0578845143318176e-001 3.6205831170082092e-001</leafValues></_>
        <_>
          <internalNodes>
            0 -1 13 -2118002112 6572346 538580384 1310450144 -1858502210
            -2097069903 1141510368 -189968218</internalNodes>
          <leafValues>
            -5.0297737121582031e-001 2.8519105911254883e-001</leafValues></_>
        <_>
          <internalNodes>
            0 -1 41 -1072578232 1934279114 415768581 1460953542
            -2147022173 1283670176 276971838 -681156590</internalNodes>
          <leafValues>
            -3.9053517580032349e-001 3.8395923376083374e-001</leafValues></_>
        <_>
          <internalNodes>
            0 -1 5 -658909527 -303173647 2063481440 1528902608
            1970794415 -1509949572 1157430780 -49355349</internalNodes>
          <leafValues>
            -2.5851410627365112e-001 5.7515108585357666e-001</leafValues></_></weakClassifiers></_>
    <!-- stage 18 -->
    <_>
      <maxWeakCount>12</maxWeakCount>
      <stageThreshold>-6.5174305438995361e-001</stageThreshold>
      <weakClassifiers>
        <_>
          <internalNodes>
            0 -1 218 -248587637 2066767691 1652445724 276033312
            -1344423352 -327238282 -1804059030 -624731058</internalNodes>
          <leafValues>
            -2.1868050098419189e-001 5.6343793869018555e-001</leafValues></_>
        <_>
          <internalNodes>
            0 -1 228 -550254309 -106242975 -1103249608 983809665
            1809903036 -1082901387 632730570 -77872513</internalNodes>
          <leafValues>
            -1.9607053697109222e-001 6.6685110330581665e-001</leafValues></_>
        <_>
          <internalNodes>
            0 -1 99 1859059306 602619883 -1208267151 820963175 401960468
            1861742547 -1258299619 -152053483</internalNodes>
          <leafValues>
            -3.6032962799072266e-001 3.9925959706306458e-001</leafValues></_>
        <_>
          <internalNodes>
            0 -1 146 135968968 -1878981629 -1878978551 270860289
            1124114651 545286147 -230505696 710676863</internalNodes>
          <leafValues>
            -4.9724861979484558e-001 2.9571843147277832e-001</leafValues></_>
        <_>
          <internalNodes>
            0 -1 154 -761265516 -1828519936 1090521128 -2063363712
            -486448744 -2138406141 -1853335256 1033372416</internalNodes>
          <leafValues>
            -5.3309464454650879e-001 3.2829448580741882e-001</leafValues></_>
        <_>
          <internalNodes>
            0 -1 203 2067710683 1600831477 -1080361230 825458239
            -1196005986 1303346998 -1406071133 -15992505</internalNodes>
          <leafValues>
            -3.2564589381217957e-001 5.9003239870071411e-001</leafValues></_>
        <_>
          <internalNodes>
            0 -1 51 1014971371 892825406 -72014 979435327 931020404
            -1083736715 -1082376388 -212603225</internalNodes>
          <leafValues>
            -3.6637663841247559e-001 4.3689164519309998e-001</leafValues></_>
        <_>
          <internalNodes>
            0 -1 199 1083353266 -1878867692 553698549 487195216
            -1333718881 -1585250304 1107333152 -2121700739</internalNodes>
          <leafValues>
            -4.1087105870246887e-001 4.0464404225349426e-001</leafValues></_>
        <_>
          <internalNodes>
            0 -1 231 1813499114 -1338277977 -1090584974 -692174934
            1300168144 534642545 -1242356319 -1002453188</internalNodes>
          <leafValues>
            -3.7570199370384216e-001 4.4168081879615784e-001</leafValues></_>
        <_>
          <internalNodes>
            0 -1 148 13127312 -1740636142 1342292124 -1173258213
            -1547476840 -1166016383 -2145386110 -1639423581</internalNodes>
          <leafValues>
            -4.6125632524490356e-001 4.0176659822463989e-001</leafValues></_>
        <_>
          <internalNodes>
            0 -1 235 -1640645 -1163067412 1988017707 -1528778763
            -235045304 -847315082 -671694955 -253770791</internalNodes>
          <leafValues>
            -3.6918532848358154e-001 5.0031888484954834e-001</leafValues></_>
        <_>
          <internalNodes>
            0 -1 116 1493217204 303190019 1342243085 177246545 939590025
            -1433272312 -1442829365 403308548</internalNodes>
          <leafValues>
            -5.3661400079727173e-001 3.5352176427841187e-001</leafValues></_></weakClassifiers></_>
    <!-- stage 19 -->
    <_>
      <maxWeakCount>10</maxWeakCount>
      <stageThreshold>-9.0399825572967529e-001</stageThreshold>
      <weakClassifiers>
        <_>
          <internalNodes>
            0 -1 2 -64954825 -1763242702 -1644884135 -711106415
            280855773 -1930432666 1198982513 -1861040709</internalNodes>
          <leafValues>
            -2.1082441508769989e-001 9.1886407136917114e-001</leafValues></_>
        <_>
          <internalNodes>
            0 -1 27 -883229254 1103077216 -1024483728 2004123180
            -151226546 -1334001835 1953944594 -1293491125</internalNodes>
          <leafValues>
            -2.8973811864852905e-001 6.7999279499053955e-001</leafValues></_>
        <_>
          <internalNodes>
            0 -1 100 -152985780 -1260310724 -134320472 -67339732
            -806515252 -1611300876 -1753319645 -1506648485</internalNodes>
          <leafValues>
            -3.2592719793319702e-001 7.1391886472702026e-001</leafValues></_>
        <_>
          <internalNodes>
            0 -1 82 277123220 318771200 -2130706431 86212874 -2138553467
            2097664 -2113732598 134283602</internalNodes>
          <leafValues>
            -4.9464291334152222e-001 5.1295399665832520e-001</leafValues></_>
        <_>
          <internalNodes>
            0 -1 227 -835286221 1772273008 -8622219 943701876
            -1643072009 2113763317 848424399 -752991229</internalNodes>
          <leafValues>
            -3.5523772239685059e-001 7.2262006998062134e-001</leafValues></_>
        <_>
          <internalNodes>
            0 -1 111 -1594591183 1030118974 2130476688 31498106
            -822493273 2102820733 -168186107 1674794386</internalNodes>
          <leafValues>
            -3.9568427205085754e-001 6.2119078636169434e-001</leafValues></_>
        <_>
          <internalNodes>
            0 -1 159 1038978755 -2027421720 -50872793 -1511325724
            2087980496 1450930044 1618226284 913806974</internalNodes>
          <leafValues>
            -4.1968914866447449e-001 6.4309024810791016e-001</leafValues></_>
        <_>
          <internalNodes>
            0 -1 69 585506478 1669234031 -268554565 -520835529
            1560036760 1415081855 2121555067 -525921215</internalNodes>
          <leafValues>
            -4.9317562580108643e-001 5.7944798469543457e-001</leafValues></_>
        <_>
          <internalNodes>
            0 -1 92 289421648 -805175288 8389010 -1609232117 679477633
            42598400 2048 465768962</internalNodes>
          <leafValues>
            -5.2136695384979248e-001 5.4192167520523071e-001</leafValues></_>
        <_>
          <internalNodes>
            0 -1 223 -1419581526 967009761 2063560482 975420988
            -565948727 737376117 -1099681013 -265567137</internalNodes>
          <leafValues>
            -4.3781918287277222e-001 6.9134932756423950e-001</leafValues></_></weakClassifiers></_></stages>
  <features>
    <_>
      <rect>
        0 0 2 3</rect></_>
    <_>
      <rect>
        0 0 3 2</rect></_>
    <_>
      <rect>
        0 0 3 3</rect></_>
    <_>
      <rect>
        0 0 4 3</rect></_>
    <_>
      <rect>
        0 0 6 4</rect></_>
    <_>
      <rect>
        0 1 1 1</rect></_>
    <_>
      <rect>
        0 1 3 3</rect></_>
    <_>
      <rect>
        0 1 8 3</rect></_>
    <_>
      <rect>
        0 2 4 6</rect></_>
    <_>
      <rect>
        0 3 1 1</rect></_>
    <_>
      <rect>
        0 3 2 2</rect></_>
    <_>
      <rect>
        0 3 2 3</rect></_>
    <_>
      <rect>
        0 3 2 6</rect></_>
    <_>
      <rect>
        0 3 3 1</rect></_>
    <_>
      <rect>
        0 3 5 3</rect></_>
    <_>
      <rect>
        0 3 8 6</rect></_>
    <_>
      <rect>
        0 4 2 3</rect></_>
    <_>
      <rect>
        0 4 3 2</rect></_>
    <_>
      <rect>
        0 4 3 3</rect></_>
    <_>
      <rect>
        0 5 2 4</rect></_>
    <_>
      <rect>
        0 5 3 2</rect></_>
    <_>
      <rect>
        0 5 8 3</rect></_>
    <_>
      <rect>
        0 6 2 1</rect></_>
    <_>
      <rect>
        0 6 7 4</rect></_>
    <_>
      <rect>
        0 7 2 2</rect></_>
    <_>
      <rect>
        0 7 4 3</rect></_>
    <_>
      <rect>
        0 8 8 2</rect></_>
    <_>
      <rect>
        0 9 1 1</rect></_>
    <_>
      <rect>
        0 9 2 1</rect></_>
    <_>
      <rect>
        0 9 2 2</rect></_>
    <_>
      <rect>
        0 10 1 1</rect></_>
    <_>
      <rect>
        0 10 5 2</rect></_>
    <_>
      <rect>
        0 11 2 1</rect></_>
    <_>
      <rect>
        0 11 3 1</rect></_>
    <_>
      <rect>
        0 12 2 1</rect></_>
    <_>
      <rect>
        0 12 2 2</rect></_>
    <_>
      <rect>
        0 12 6 2</rect></_>
    <_>
      <rect>
        0 13 1 1</rect></_>
    <_>
      <rect>
        0 13 3 3</rect></_>
    <_>
      <rect>
        0 13 4 2</rect></_>
    <_>
      <rect>
        0 14 1 1</rect></_>
    <_>
      <rect>
        0 15 2 1</rect></_>
    <_>
      <rect>
        0 16 1 1</rect></_>
    <_>
      <rect>
        0 16 2 1</rect></_>
    <_>
      <rect>
        0 16 4 1</rect></_>
    <_>
      <rect>
        0 17 1 1</rect></_>
    <_>
      <rect>
        0 17 3 2</rect></_>
    <_>
      <rect>
        0 18 1 1</rect></_>
    <_>
      <rect>
        0 18 1 2</rect></_>
    <_>
      <rect>
        0 18 4 2</rect></_>
    <_>
      <rect>
        0 18 8 2</rect></_>
    <_>
      <rect>
        0 19 1 1</rect></_>
    <_>
      <rect>
        0 20 1 1</rect></_>
    <_>
      <rect>
        0 21 1 1</rect></_>
    <_>
      <rect>
        0 21 2 1</rect></_>
    <_>
      <rect>
        0 21 3 1</rect></_>
    <_>
      <rect>
        0 21 4 1</rect></_>
    <_>
      <rect>
        1 0 4 2</rect></_>
    <_>
      <rect>
        1 0 5 3</rect></_>
    <_>
      <rect>
        1 1 3 1</rect></_>
    <_>
      <rect>
        1 2 2 1</rect></_>
    <_>
      <rect>
        1 2 7 4</rect></_>
    <_>
      <rect>
        1 3 1 1</rect></_>
    <_>
      <rect>
        1 3 2 1</rect></_>
    <_>
      <rect>
        1 3 2 3</rect></_>
    <_>
      <rect>
        1 3 7 2</rect></_>
    <_>
      <rect>
        1 5 1 1</rect></_>
    <_>
      <rect>
        1 6 1 2</rect></_>
    <_>
      <rect>
        1 8 3 3</rect></_>
    <_>
      <rect>
        1 14 2 1</rect></_>
    <_>
      <rect>
        1 15 4 1</rect></_>
    <_>
      <rect>
        1 16 4 1</rect></_>
    <_>
      <rect>
        1 19 6 1</rect></_>
    <_>
      <rect>
        1 21 1 1</rect></_>
    <_>
      <rect>
        1 21 7 1</rect></_>
    <_>
      <rect>
        2 0 6 3</rect></_>
    <_>
      <rect>
        2 1 1 2</rect></_>
    <_>
      <rect>
        2 3 2 1</rect></_>
    <_>
      <rect>
        2 4 1 1</rect></_>
    <_>
      <rect>
        2 4 3 1</rect></_>
    <_>
      <rect>
        2 5 2 2</rect></_>
    <_>
      <rect>
        2 5 3 2</rect></_>
    <_>
      <rect>
        2 13 5 2</rect></_>
    <_>
      <rect>
        2 15 4 1</rect></_>
    <_>
      <rect>
        2 19 4 1</rect></_>
    <_>
      <rect>
        2 20 3 1</rect></_>
    <_>
      <rect>
        2 21 5 1</rect></_>
    <_>
      <rect>
        3 0 4 1</rect></_>
    <_>
      <rect>
        3 0 7 5</rect></_>
    <_>
      <rect>
        3 2 1 1</rect></_>
    <_>
      <rect>
        3 3 1 1</rect></_>
    <_>
      <rect>
        3 4 1 1</rect></_>
    <_>
      <rect>
        3 9 4 2</rect></_>
    <_>
      <rect>
        3 12 2 1</rect></_>
    <_>
      <rect>
        3 17 2 1</rect></_>
    <_>
      <rect>
        3 17 7 1</rect></_>
    <_>
      <rect>
        3 18 7 1</rect></_>
    <_>
      <rect>
        3 21 2 1</rect></_>
    <_>
      <rect>
        3 21 7 1</rect></_>
    <_>
      <rect>
        4 3 3 1</rect></_>
    <_>
      <rect>
        4 6 1 1</rect></_>
    <_>
      <rect>
        4 7 2 1</rect></_>
    <_>
      <rect>
        4 21 2 1</rect></_>
    <_>
      <rect>
        5 0 3 1</rect></_>
    <_>
      <rect>
        5 0 6 3</rect></_>
    <_>
      <rect>
        5 4 2 1</rect></_>
    <_>
      <rect>
        5 6 5 3</rect></_>
    <_>
      <rect>
        5 8 1 1</rect></_>
    <_>
      <rect>
        6 0 1 1</rect></_>
    <_>
      <rect>
        6 0 2 1</rect></_>
    <_>
      <rect>
        6 0 4 1</rect></_>
    <_>
      <rect>
        6 6 3 1</rect></_>
    <_>
      <rect>
        6 7 1 1</rect></_>
    <_>
      <rect>
        6 7 5 5</rect></_>
    <_>
      <rect>
        6 9 1 1</rect></_>
    <_>
      <rect>
        6 9 2 1</rect></_>
    <_>
      <rect>
        6 13 3 1</rect></_>
    <_>
      <rect>
        6 14 2 1</rect></_>
    <_>
      <rect>
        6 18 6 2</rect></_>
    <_>
      <rect>
        6 20 3 1</rect></_>
    <_>
      <rect>
        6 21 2 1</rect></_>
    <_>
      <rect>
        7 1 2 1</rect></_>
    <_>
      <rect>
        7 2 3 1</rect></_>
    <_>
      <rect>
        7 8 1 1</rect></_>
    <_>
      <rect>
        7 8 2 1</rect></_>
    <_>
      <rect>
        7 21 2 1</rect></_>
    <_>
      <rect>
        8 1 1 1</rect></_>
    <_>
      <rect>
        8 6 3 1</rect></_>
    <_>
      <rect>
        8 7 5 1</rect></_>
    <_>
      <rect>
        8 8 4 1</rect></_>
    <_>
      <rect>
        8 10 3 1</rect></_>
    <_>
      <rect>
        8 14 2 3</rect></_>
    <_>
      <rect>
        8 14 3 1</rect></_>
    <_>
      <rect>
        8 16 2 1</rect></_>
    <_>
      <rect>
        8 16 4 1</rect></_>
    <_>
      <rect>
        8 20 5 1</rect></_>
    <_>
      <rect>
        8 21 5 1</rect></_>
    <_>
      <rect>
        9 0 2 1</rect></_>
    <_>
      <rect>
        9 0 5 2</rect></_>
    <_>
      <rect>
        9 0 5 4</rect></_>
    <_>
      <rect>
        9 2 1 1</rect></_>
    <_>
      <rect>
        9 3 5 2</rect></_>
    <_>
      <rect>
        9 9 1 1</rect></_>
    <_>
      <rect>
        9 19 3 1</rect></_>
    <_>
      <rect>
        9 21 2 1</rect></_>
    <_>
      <rect>
        10 0 1 1</rect></_>
    <_>
      <rect>
        10 0 3 3</rect></_>
    <_>
      <rect>
        10 7 2 1</rect></_>
    <_>
      <rect>
        10 7 3 1</rect></_>
    <_>
      <rect>
        10 8 1 1</rect></_>
    <_>
      <rect>
        10 8 2 1</rect></_>
    <_>
      <rect>
        10 9 2 1</rect></_>
    <_>
      <rect>
        10 10 1 1</rect></_>
    <_>
      <rect>
        10 16 4 1</rect></_>
    <_>
      <rect>
        10 17 2 1</rect></_>
    <_>
      <rect>
        10 18 1 1</rect></_>
    <_>
      <rect>
        11 1 2 1</rect></_>
    <_>
      <rect>
        11 16 2 1</rect></_>
    <_>
      <rect>
        12 0 4 1</rect></_>
    <_>
      <rect>
        12 0 4 2</rect></_>
    <_>
      <rect>
        12 1 3 1</rect></_>
    <_>
      <rect>
        12 1 4 3</rect></_>
    <_>
      <rect>
        12 2 4 6</rect></_>
    <_>
      <rect>
        12 5 4 4</rect></_>
    <_>
      <rect>
        12 7 1 1</rect></_>
    <_>
      <rect>
        12 7 4 1</rect></_>
    <_>
      <rect>
        12 9 2 1</rect></_>
    <_>
      <rect>
        12 19 4 1</rect></_>
    <_>
      <rect>
        12 21 1 1</rect></_>
    <_>
      <rect>
        12 21 2 1</rect></_>
    <_>
      <rect>
        12 21 3 1</rect></_>
    <_>
      <rect>
        12 21 4 1</rect></_>
    <_>
      <rect>
        13 0 1 1</rect></_>
    <_>
      <rect>
        13 6 2 1</rect></_>
    <_>
      <rect>
        13 8 1 1</rect></_>
    <_>
      <rect>
        13 8 2 1</rect></_>
    <_>
      <rect>
        13 10 3 1</rect></_>
    <_>
      <rect>
        14 0 1 1</rect></_>
    <_>
      <rect>
        14 0 3 3</rect></_>
    <_>
      <rect>
        14 1 3 1</rect></_>
    <_>
      <rect>
        14 6 1 1</rect></_>
    <_>
      <rect>
        14 7 3 3</rect></_>
    <_>
      <rect>
        14 9 1 1</rect></_>
    <_>
      <rect>
        14 12 1 1</rect></_>
    <_>
      <rect>
        15 0 2 1</rect></_>
    <_>
      <rect>
        15 0 3 2</rect></_>
    <_>
      <rect>
        15 3 3 5</rect></_>
    <_>
      <rect>
        15 4 3 2</rect></_>
    <_>
      <rect>
        15 5 3 4</rect></_>
    <_>
      <rect>
        15 9 3 1</rect></_>
    <_>
      <rect>
        15 10 3 1</rect></_>
    <_>
      <rect>
        15 14 3 2</rect></_>
    <_>
      <rect>
        15 15 3 1</rect></_>
    <_>
      <rect>
        15 17 2 1</rect></_>
    <_>
      <rect>
        15 17 3 2</rect></_>
    <_>
      <rect>
        15 18 3 2</rect></_>
    <_>
      <rect>
        15 21 3 1</rect></_>
    <_>
      <rect>
        16 6 1 1</rect></_>
    <_>
      <rect>
        16 13 1 1</rect></_>
    <_>
      <rect>
        16 14 2 1</rect></_>
    <_>
      <rect>
        17 2 2 1</rect></_>
    <_>
      <rect>
        17 3 2 1</rect></_>
    <_>
      <rect>
        17 11 2 1</rect></_>
    <_>
      <rect>
        18 1 2 3</rect></_>
    <_>
      <rect>
        18 2 2 2</rect></_>
    <_>
      <rect>
        18 3 2 2</rect></_>
    <_>
      <rect>
        18 3 2 4</rect></_>
    <_>
      <rect>
        18 4 2 3</rect></_>
    <_>
      <rect>
        18 5 2 2</rect></_>
    <_>
      <rect>
        18 6 2 3</rect></_>
    <_>
      <rect>
        18 7 2 1</rect></_>
    <_>
      <rect>
        18 9 2 1</rect></_>
    <_>
      <rect>
        18 10 2 1</rect></_>
    <_>
      <rect>
        18 14 2 2</rect></_>
    <_>
      <rect>
        18 15 2 1</rect></_>
    <_>
      <rect>
        18 15 2 2</rect></_>
    <_>
      <rect>
        18 16 2 2</rect></_>
    <_>
      <rect>
        18 21 2 1</rect></_>
    <_>
      <rect>
        19 2 1 2</rect></_>
    <_>
      <rect>
        19 3 1 1</rect></_>
    <_>
      <rect>
        19 4 1 1</rect></_>
    <_>
      <rect>
        20 2 1 1</rect></_>
    <_>
      <rect>
        20 3 1 2</rect></_>
    <_>
      <rect>
        20 4 1 1</rect></_>
    <_>
      <rect>
        20 5 1 1</rect></_>
    <_>
      <rect>
        20 21 1 1</rect></_>
    <_>
      <rect>
        21 0 1 4</rect></_>
    <_>
      <rect>
        21 2 1 4</rect></_>
    <_>
      <rect>
        21 3 1 3</rect></_>
    <_>
      <rect>
        21 4 1 5</rect></_>
    <_>
      <rect>
        21 7 1 2</rect></_>
    <_>
      <rect>
        21 8 1 1</rect></_>
    <_>
      <rect>
        21 10 1 1</rect></_>
    <_>
      <rect>
        21 10 1 3</rect></_>
    <_>
      <rect>
        21 11 1 1</rect></_>
    <_>
      <rect>
        21 12 1 1</rect></_>
    <_>
      <rect>
        21 12 1 3</rect></_>
    <_>
      <rect>
        21 13 1 1</rect></_>
    <_>
      <rect>
        21 14 1 1</rect></_>
    <_>
      <rect>
        21 16 1 1</rect></_>
    <_>
      <rect>
        21 17 1 2</rect></_>
    <_>
      <rect>
        21 18 1 1</rect></_>
    <_>
      <rect>
        21 18 1 2</rect></_>
    <_>
      <rect>
        21 20 1 1</rect></_>
    <_>
      <rect>
        21 21 1 1</rect></_></features></cascade>
</opencv_storage>
